1.931137562,5.39663887,-1.687698841,4.425406456,-3.204465628,4.727392197,4.877437592,1.997108459,-2.694411278,-1.08617115,2.957247734,-5.401491165,4.275206566,2.106220722,-2.9941082,-4.104194641
3.432862282,4.36519146,-4.658838749,1.028739452,-1.478435516,3.732469559,-4.521291733,-5.218479633,1.889379978,-3.184912205,0.043975353,2.55645752,3.085869789,3.862668037,2.871979713,-2.151452541
3.44187355,-5.052653313,5.242313385,-5.239714146,-1.563250065,-1.374882698,-1.640930176,2.369496822,-2.275012016,-1.340076923,-0.273923397,-3.043941259,1.83106041,-0.442575932,3.809136391,3.042277336
-4.548159599,-5.204465389,-4.489385605,-3.050611973,-4.807103157,-5.044951916,-1.104972363,-0.712443829,3.32757473,0.923685551,4.09252739,-5.01505661,-4.893882751,-1.509467125,5.170823097,-0.040513039
-1.737251997,-2.644362688,3.943861961,4.711521149,4.469586372,0.316420078,4.671505928,-5.213366985,1.096178532,5.100046158,-5.418636799,5.080558777,-3.989882708,-0.075754642,-4.461546421,-3.611509323
-4.69055748,-4.911118031,-4.274244308,4.97709465,2.513176918,-5.376834393,-2.995836496,-4.979286671,2.923603058,2.267175674,4.762042999,0.44625473,-2.366353273,-1.472063541,-3.133999348,-0.396224976
-3.427736521,-2.491683483,2.167072296,0.524850845,-0.422077656,3.182953835,5.016357422,2.526495934,1.155187607,0.884361744,3.526974678,-5.180997849,-0.360967159,0.462832451,-3.167733431,1.771404743
-4.867362499,0.006694317,-0.302405834,4.125193596,-1.898072481,1.797832489,-2.706404686,1.309009552,1.331472874,4.481926918,1.987653732,1.362852097,4.460811615,0.058618069,3.238530159,0.754344463
-3.554965734,1.209979057,4.078782082,1.373578548,3.24354744,4.479885101,0.285421371,-1.203690052,-5.456719875,-1.56195116,-2.977696896,-3.924017668,0.698564529,-2.7354846,5.180494308,-1.923584461
2.120938778,-1.940144777,-4.617155075,-4.725402832,3.679945946,-3.082001686,-0.303740501,1.865563393,3.329595566,0.261956215,1.984278679,-0.636123657,1.891909122,0.647817135,-2.910986185,4.798071861
4.985990524,4.167581558,-2.28965497,-0.478568554,-1.65640831,3.178397179,1.860840797,-0.635140419,2.271395206,1.716210365,2.380820751,-0.636904716,1.844191551,5.017642021,-0.980469704,-0.334539413
3.422002792,-2.225762844,0.295592308,-0.221156597,3.665914536,-0.572852612,-3.503207207,-3.798742771,-3.180871248,1.247761726,0.685325146,-0.912051678,2.299969196,0.583776951,-1.450191021,2.484197617
-4.777959347,16.9412632,9.045192719,13.1696167,-10.4389534,-7.584856033,15.18050385,-12.91912746,10.14569378,23.07714462,-15.40439606,9.56674099,-7.587528706,-13.78240967,-10.26130486,10.28798103
6.222016335,0.55029887,12.13151455,6.160002708,-6.192151546,-0.848764181,4.657374382,-9.030981064,12.3462162,10.2068634,-3.258711576,13.27103806,-14.89418316,-3.524799109,-14.49059677,5.171693325
18.2475872,-19.37000084,15.90725231,-10.70943356,18.12029648,12.05540276,-21.39392853,19.55378532,-12.00425339,-20.12768173,13.8818922,16.03488541,-13.01376152,5.902188301,5.610191345,-16.53851128
2.239887714,0.834539354,0.58357048,-4.302410126,1.836128354,1.018533945,2.174912691,4.629413128,-0.730494738,-4.723133564,-0.43592447,2.534035444,-6.759750843,4.279881001,-1.379579306,3.002969265
4.088438034,3.229696274,-3.311079025,-5.006172657,-3.101057053,-1.438901424,4.255161285,4.00583744,1.684856415,-0.907976151,4.12366581,-0.097626209,-4.917729378,4.124494553,-5.188996792,3.828634262
-4.515735149,-0.617184639,3.33048439,2.702504158,-0.642248631,-3.203530073,4.08101368,-5.093519211,2.176783562,-3.216517448,2.558418274,-4.647512913,5.4842453,-1.159630299,-3.268345833,0.733285904
-4.906469345,-0.222040653,3.506690979,-5.182301998,1.221655369,1.173024654,1.979120731,-2.644062519,-5.518651962,-1.960863829,-2.255734682,0.851147175,2.114129543,1.450410366,-2.401206493,0.443853855
5.067107201,-2.687238455,5.320492744,-4.562650681,-3.002813816,-3.858222485,2.732549667,3.41409874,2.897245407,1.002006531,3.055608749,2.634739876,3.222548485,1.060276985,3.401511192,-4.340629578
-4.696536064,-5.067357063,0.226814747,4.882470131,-4.176755428,-1.149542332,4.0866642,-4.86347723,2.73001194,-4.431388378,2.599825859,4.367501259,3.300930023,-5.114613533,-0.48641634,-1.2800951
-5.04399395,-4.827898502,3.881885529,1.380101204,1.105230331,-4.014459133,-1.204077244,3.751384735,-2.120029688,-1.627181768,-2.350123167,0.127473831,-3.86809516,-3.531601191,4.251350403,-4.898255348
-4.009622574,5.419861794,-3.401024818,4.552567482,0.304673672,2.632299423,2.317282677,1.257640839,3.771777153,2.514176369,0.161358356,-5.154367924,0.340060711,2.718945503,-5.167383194,-3.274334669
-3.171862841,-1.006146431,-0.285804272,-2.644658566,-0.284430027,-3.59507966,0.391621113,2.485685349,4.619639397,2.004167557,-1.601233959,5.316915512,-0.860947132,-3.414754629,3.451731682,1.25952816
1.194652557,-4.977293968,-2.83226347,-0.679114342,-2.707657337,3.68947506,-1.503474236,2.839970589,-0.683675766,-2.288774967,4.034798622,3.276486397,0.573120594,1.364803791,3.840195656,0.174493313
2.078620911,-1.822837114,4.490080833,-5.483684063,4.150958061,-3.430039883,0.905750751,-1.86811924,-4.239608765,1.257845879,-2.181096554,1.557229519,4.962905884,-4.835414886,3.512962341,3.592266083
-1.646363974,-0.572084904,3.841856956,1.887759686,-0.323653698,-1.967880726,4.876342773,4.396530151,-2.89598918,-3.662042856,1.815086842,-5.477237701,5.469602585,-1.996075153,-1.743252754,0.545387268
-0.022394657,-3.671488523,-1.500865936,-0.834701538,-2.937670231,5.469430923,4.971982956,-0.390337944,4.544311523,-4.54433918,1.597853661,-2.511087656,0.415011883,4.028528214,-4.045415401,-1.020707607
1.662360191,-1.834005833,1.274780273,3.024411201,-0.583714962,0.307797432,1.565598488,5.426971436,3.349583626,4.448132515,3.648082733,1.36404562,-2.134333134,-2.712763548,-5.424031258,5.28314209
-1.523342133,0.467110157,1.016299248,-3.416547775,3.460434914,-1.232041836,0.471455097,4.442519188,4.434724808,4.755745888,3.855366707,4.778711319,-0.122812748,3.191326141,-4.364632607,-2.155584812
-0.294197083,-1.968430519,-4.519379616,2.188888073,-0.986705303,0.818090916,-0.46340847,3.426701546,-0.757922649,2.041789532,-0.707681179,4.658236504,0.056641102,-5.399153233,5.207712173,-5.53098011
5.426803589,0.248011112,3.064933777,-0.742826462,-0.788354397,-5.275144577,2.264444351,-0.319161892,3.991202354,5.361639023,-0.044642448,3.389662743,-0.471837997,-0.862261772,-0.40360117,-4.266848087
-3.947185755,6.186441898,2.631151915,7.297263622,0.915948331,1.062995315,-0.715939999,-6.390838146,5.294964314,8.25151825,-0.179770917,1.174643517,-3.309746981,0.219212145,-8.049584389,2.522236824
-0.385534495,-1.221228957,3.939567566,4.704160213,-5.143864155,-3.109216928,-2.500159979,-12.12775803,7.569255829,18.32636452,-13.11509037,8.630890846,-3.313803911,-11.35976505,-9.907456398,10.29135609
20.94827652,-14.55239296,21.25257683,22.43983841,-19.51967239,9.955060005,-17.34156799,-29.92464447,28.35353279,31.64761353,-23.71190071,22.17434311,-25.22895813,-30.7201252,-30.23755646,22.76824188
13.82565975,-23.95858574,21.24391556,30.57289505,-25.03054237,11.33793449,-22.12072372,-22.61714172,26.43193626,30.27259254,-23.76152039,23.04828835,-24.89599991,-32.38373566,-31.72860718,26.2881279
15.1980257,-2.407530308,18.51409912,23.97395325,-21.22492409,-4.452045441,-9.04457283,-25.21291351,21.90411186,24.06122208,-21.41918755,23.14413643,-24.47819328,-24.66231346,-27.62065506,25.02993011
16.75234985,-5.136478901,26.15729141,13.78955555,-8.670742989,3.624845982,-1.165519953,-19.87188148,20.64732552,10.37874794,-8.330528259,23.79381371,-28.28793526,-23.75585747,-23.87200356,8.334981918
20.13189697,8.00243187,14.82773495,-2.458565712,-23.35725784,-7.56368351,9.541422844,-22.21780777,5.777812958,9.975093842,-20.33385849,34.82378769,-29.16332817,14.23919201,-25.53912735,19.93061066
-12.4052248,-7.165355206,5.627022266,28.56340408,10.42965889,-1.777402997,-12.41761875,-12.87106895,34.70877075,33.65816498,0.14668633,-1.230301619,-0.085554898,-22.47214508,-3.094147205,-7.097378254
-27.64603996,-11.04377842,11.43264198,46.18167877,17.12980843,1.073460698,-17.44241905,-15.50047302,46.78771591,55.24623871,2.985305309,-5.460011959,3.326037169,-40.46291733,-1.389811873,-2.770969391
-36.72932434,-4.657156944,32.13336182,50.44966507,14.8345871,-0.074067287,-16.80389023,-17.23199844,15.35932636,41.98635101,4.555706978,1.684433699,7.575134277,-35.62677002,-27.61067581,1.730654359
-7.900698185,9.825761795,-22.70584679,-27.32193947,19.33912277,-8.76363945,21.72114563,25.78689766,-25.85272217,-1.783456206,14.19674397,-25.10386276,20.07048607,23.84230804,28.51948738,-13.33475018
11.63647747,-9.505590439,19.11041069,27.52140999,3.854459286,4.974502563,-15.78599834,-6.660264969,44.54483795,2.65860033,-0.597511232,32.21166611,-49.46065521,-38.98618317,-6.539093018,-1.587257147
12.11479759,-27.09980965,52.01374435,29.62189484,20.0356617,36.05672455,-36.45128632,-5.447833061,32.51880264,0.093359187,16.91168785,59.09453583,-46.6457634,-28.03818512,-33.23023605,-25.5557003
-13.75108624,-11.33034325,41.29167175,37.01094818,16.30045509,5.688813686,-25.07483292,-28.70290375,42.40066528,25.70307732,-4.23429966,37.96650696,-40.00354004,-35.53753281,-52.30680466,-4.010044575
3.118460417,15.29815769,30.00738716,27.25603104,-22.28777122,-5.577056408,18.13706398,-27.21124268,25.32310486,12.69059658,-20.42066765,24.57169724,-27.6995182,-16.04267311,-25.85603905,15.15024948
12.87131977,17.49681091,32.33729172,39.20746994,-35.5087471,-27.92860222,8.181582451,-38.91289902,31.83289528,46.89872742,-35.03639603,29.55544281,-32.50561905,-34.71778488,-37.73361588,44.61730194
35.16323853,-14.65909386,45.71121216,41.49528122,-39.79469681,4.936878681,-22.25688553,-45.52524567,43.98101807,51.06075668,-39.58241272,38.92428589,-37.96798706,-37.84750366,-44.1664505,44.62978745
15.36340046,-7.494787216,31.45013428,30.60670662,-31.5024128,-4.675692558,-12.69200993,-30.25568581,32.46564484,41.96871948,-29.45314026,29.36702156,-26.66440773,-30.85530663,-31.45901299,32.76025772
23.92359352,-24.96832466,31.53995514,24.6618042,-28.49015999,22.72929764,-30.83744049,-30.73176193,30.8575592,25.80594826,-24.75467682,26.08804703,-24.95201874,-24.03297615,-25.66283798,23.91981697
17.05898094,-22.04071617,30.91259766,21.5614109,-28.17644501,12.42425251,-24.7272625,-24.08709717,27.00143051,19.67965508,-19.63128281,21.2432518,-21.2117157,-31.12072563,-22.23130417,18.8433342
4.846656799,-0.204621315,3.626329422,4.060905457,-0.976762772,-0.690907001,-2.049880505,-4.609664917,-4.680081367,4.437979698,1.613853455,-0.796860695,0.858059883,4.496150017,1.266324043,0.520652771
2.572458267,2.608026505,4.486343384,-0.083384991,4.022927284,-2.498527288,5.451496124,2.450901031,2.430865288,2.69219017,2.621677399,0.141261578,-3.039197206,4.854643822,1.514795303,-2.377731085
-4.695978165,-1.385753155,-1.001273155,0.170301914,-0.036738873,-3.391543388,0.234354973,4.118578911,-0.708816528,2.430780411,2.657290459,-0.325749397,0.960576534,2.027479172,-4.696676254,3.92973423
4.713468552,-0.20643568,-0.238965511,0.801878452,-3.45949626,2.369445324,-1.249771595,4.028187752,1.733152866,3.782509804,-1.360938549,-1.79878664,1.19178009,-1.049253464,-4.82778883,2.566119194
2.497797966,-0.313507557,0.775311947,5.280878067,-0.638420105,4.011333466,1.622813225,-0.561748505,-3.844709396,4.888341904,5.504954338,0.676359177,-2.046714306,1.200233459,-3.316539288,3.054554939
0.203529835,-1.027256966,-0.328590393,-2.406785727,0.807326794,4.354799271,-2.879803896,1.469470978,1.792919636,-1.566512823,-5.231976986,1.575305462,4.835400581,-2.765916109,5.261849403,-1.543132305
3.727998018,3.159546852,1.251536131,-1.097554088,-4.56264925,0.654335797,-1.125244737,-4.719156265,-3.216593981,-0.082918212,-4.743631363,3.382112741,-8.088059425,3.039707899,-3.142147779,1.091680646
-5.389628887,-20.81846428,34.3119812,32.76280594,12.88773632,20.98638535,-20.61734962,-36.34482193,25.77840233,30.39748383,-17.75139809,31.98439026,-28.96611023,-30.38243484,-38.95520782,-14.68971348
-30.51606178,-23.49069977,30.91440201,34.87789536,19.25446701,9.943881035,-23.27826691,-43.31043243,37.28798294,53.60544968,-33.37883759,24.75368881,-30.72749519,-30.15970802,-45.8451767,-6.23979187
-10.05436707,20.46145439,18.47199821,20.30459213,-9.870203972,-5.172654629,13.62011909,-15.25535297,3.434519768,11.1866703,-7.714358807,8.722930908,2.688884735,3.583102942,-28.14978981,20.06598663
8.221217155,-6.98646307,39.01203918,16.14426994,-5.028023243,0.174568847,1.111584425,-18.98060608,13.71393394,-0.933840156,-14.93760109,19.49391365,-20.77758789,-20.00466537,-25.04569435,10.64936638
13.78234959,-10.93762016,53.09405518,41.87874985,-12.80980206,11.73136902,-16.86367226,-31.20280838,42.5667038,34.32975769,-18.73778152,39.84300995,-34.67921829,-45.35486221,-36.2892189,18.94281197
6.043917179,-4.006426811,41.98192596,12.98574448,-4.238908291,19.52631378,-9.947002411,-22.28100967,7.291849613,8.41300869,-4.321428776,56.59698486,-27.11286545,-17.55423927,-52.99093628,7.731294155
23.54248428,-14.94446754,44.49799728,-6.244368076,2.863807917,20.04657936,-17.14011002,-4.422603607,0.758214891,-5.472910404,0.291385084,59.28484726,-38.48576736,3.540873766,-37.04909134,-0.269366175
22.35268784,5.292525768,44.3602066,26.33708572,-37.03417969,13.63861942,2.184234858,-33.45013046,45.19857788,12.90809631,-22.13500977,71.17227173,-57.9960289,-53.23880768,-68.96263123,13.25089741
27.65852356,-4.909705639,21.10910988,-8.876939774,-42.67399216,24.56943703,19.53122139,-14.52551937,2.3892169,-2.284878254,0.845765293,79.1001358,-42.04812241,-21.25026894,-72.91687012,-0.44352448
37.46160126,0.12532942,11.65780735,-3.11751318,-28.34597397,27.08527565,9.733023643,-9.701807976,19.92824554,-5.882309437,-6.422934055,62.1375351,-26.65200233,-21.15030289,-55.98477554,-2.948740482
21.67381287,3.192879915,-6.366560936,8.891765594,-25.76370621,4.779154301,21.46214676,-6.835949421,23.90485382,-4.38574028,-12.28660011,3.030920267,-18.67429543,-12.43591404,0.8853392,3.089520693
18.51865768,10.08825016,2.457865953,-16.55523491,-34.2294693,8.343716621,30.53915977,-5.360512257,-4.198829651,-2.53502059,-3.063938618,26.40612411,-0.097539261,23.89650154,-29.43359947,7.587076664
37.38156509,2.516550541,2.329488277,-13.47327518,-32.52355194,6.368597984,22.80120659,-7.148746967,23.24514771,-14.14561081,-14.00975418,22.31907272,-24.81268501,24.85103226,8.655039787,8.775868416
44.8429718,2.419849873,-1.893899798,-5.310097218,-15.20152092,3.504966974,10.13477039,-16.44322205,28.35787582,-5.932094574,-11.73188496,29.60650826,-34.37597656,14.88682938,4.438313961,7.432414055
24.46696281,13.82254219,1.711755991,-8.976527214,-3.498570919,-6.584563732,4.827316284,-25.80731392,19.8659668,7.622361183,-7.545264721,38.72537231,-28.74227333,32.92229462,5.189565182,3.278690338
14.68404579,-5.076559067,16.05124855,-12.59139633,8.558270454,-10.66179848,-20.08382034,-30.70778084,-1.563783526,7.224579811,-7.122357368,42.22257614,-46.75452042,35.91196442,-13.62481594,-4.141327381
17.54992867,11.13978958,5.76397419,0.390121311,2.26215601,-17.60248184,2.531839371,-35.39174271,24.06480598,23.84852409,-16.01174355,44.41657639,-30.68778992,16.60067368,-1.321126103,4.231821537
33.66680527,1.07806623,11.42071152,-4.612417698,-3.260335445,7.367384434,-3.039495945,-19.85396004,14.88418865,2.659731627,-12.82254791,63.08056259,-59.11616135,7.494463921,-11.83689213,5.312918663
16.95556068,-0.036613986,18.39359856,7.631159782,-11.6715126,7.33488369,5.248985767,-20.6835804,4.086610317,5.216366291,-6.148150921,53.115448,-22.84659195,0.146458447,-22.90160751,6.617151737
6.6632967,11.57479668,10.72821999,6.306326866,-3.23043561,-14.71052074,11.18746662,-11.59276199,10.11733723,24.93429375,-10.84557438,12.39751625,-7.013424873,-0.3892138,-4.411410809,6.587106228
27.52406883,-7.371266365,26.74942207,31.98244667,-20.1835537,26.22058868,5.600292683,-35.57068634,43.13232422,6.53838253,-27.8552475,58.60439682,-52.10023117,-28.19745255,-25.83060074,13.60290813
40.08111954,-20.89463425,41.57360077,0.01088906,-8.273995399,34.03400803,-11.95753479,25.00563049,-2.734500408,-35.38087463,15.65857601,51.34080887,-44.41071701,-21.62890816,-20.71149445,-17.8138485
29.33940697,-18.62882042,25.79166222,-11.9460001,3.421859503,29.41158867,-18.84903336,26.68048096,-11.56904888,-24.6008358,25.37895966,34.01782227,-26.39958191,-5.385962963,2.429792881,-21.05053711
-0.066487312,5.480344772,2.296915054,1.355296135,3.283608437,-0.487427235,4.578403473,2.852392197,-3.900235653,1.483912945,-4.306298733,-4.540643215,-4.145878792,-5.315021992,4.396946907,-3.896557808
5.027514458,3.273732185,-4.271328926,0.058489799,3.405856133,-5.217283726,-5.432586193,0.197947979,5.133861542,4.109858513,1.582368851,-1.860908031,4.256954193,2.959244728,4.414647102,-1.683046103
-3.443579435,4.34483242,-2.94304204,-0.28308773,-0.793992996,1.65648365,-3.573320866,-5.509625435,-3.971270084,3.213887215,-0.327649593,3.104043007,-0.9272995,-3.724620104,-0.861338139,-0.026640415
-2.482714891,0.347189903,3.68806076,3.648960114,-3.125794411,-2.948346376,-3.616637707,-2.844987869,-3.719074011,2.72362709,3.700404167,-0.391757011,4.01282692,-0.856924534,-3.7874856,-4.669154167
16.78858948,1.45683682,-15.06711864,25.13352776,-24.64544868,-14.1348362,16.57082367,-1.507631421,22.02445602,-18.2887249,-24.97100639,-20.89001083,-27.37178993,-17.7025795,22.43369484,26.54646111
16.62103081,-15.41109943,33.44484329,33.46789169,1.811543822,12.31650162,-24.47202492,-49.77756119,32.49712372,45.65195084,-38.58115387,54.5950737,-44.0091095,-26.05485535,-29.95363426,-2.490047455
19.47692299,-7.176985264,-21.84386826,-9.440413475,24.36741447,-42.66877747,-30.08431816,-49.9244194,39.05321121,47.62263107,-9.622729301,31.4573555,-44.58117294,18.42362785,18.62891388,-18.10872459
8.939043999,-13.97742653,-20.45520973,-20.91859245,-9.562430382,23.26335335,26.218853,17.98805618,9.72735405,14.17267513,25.21049309,1.799042106,36.44169998,-23.10385704,-23.0265255,-19.11139488
29.70716095,4.593265533,-6.129079819,1.105913401,-47.93009567,6.587732792,15.70289993,-27.96138763,31.70272446,12.66773033,-27.25289726,31.91786575,-34.63076401,-28.33905983,-37.81655502,5.115954399
20.58361435,8.66774559,-15.8334713,-13.35317421,-23.85242844,26.13609123,25.61976242,-5.789523602,7.628062248,0.216896877,-2.593827486,9.117066383,-6.546145916,-5.953862667,-26.007658,-9.714113235
11.514678,-7.972189903,-13.95135975,3.854010344,-2.877372503,15.10954857,-3.337960958,-20.73581123,28.46060371,21.41629028,-5.452383518,24.75715256,-22.91326141,-39.81293488,-46.7689476,-20.18982887
20.13509178,-21.30882835,17.49254227,2.769797564,-4.449316978,17.85091209,-20.93907928,-23.07827187,16.74021721,-6.233324528,-1.917425871,51.06018448,-44.00785828,-22.90929604,-45.06272888,-3.954989195
18.37136841,-12.26372337,2.250256777,-17.86669731,16.11578941,2.935446978,-15.05452919,-20.71380043,4.637002945,11.34154034,2.668119192,28.07866478,-15.64869881,-7.122210503,-28.89137459,-18.38469887
18.36595917,-11.20374107,4.867298603,-16.00669479,1.609109521,15.98452759,-14.03552055,-21.14853859,5.158689976,12.18658924,1.822604895,42.55911255,-19.03907776,-26.72151756,-50.03328323,-14.96625519
30.63794136,-15.93467617,-15.55850792,-19.24419785,0.911130369,7.847353935,-12.99053955,-24.23876953,25.2115612,9.177287102,-4.165117741,37.29922485,-44.73690414,-12.5698595,-16.67637253,-24.24018478
24.45036888,-25.84585953,6.351513386,2.376264095,-0.319569975,15.980196,-33.460186,-42.44257355,25.48179436,2.534910679,-10.04622078,40.88671875,-61.9885025,-33.62524414,-37.4539032,-8.772089958
12.7958374,-11.463727,-4.639697552,-16.05746651,4.826533794,14.60053635,-17.20408249,-21.60604286,15.50615883,14.49176598,3.626609802,38.88693619,-21.20864677,-5.029135227,-33.95624542,-19.83493233
16.98628235,-7.47902298,-6.027290344,-12.99130726,0.636751652,7.636069775,-9.199184418,-30.90652084,17.95006561,12.42685413,-7.433421135,33.46118927,-25.69033432,-0.850943446,-14.43208599,-9.260615349
12.68510246,-10.10997486,-6.22042799,-4.679622173,1.794555783,15.22133541,-5.879185677,-9.491427422,17.73952293,-1.947300315,3.107973814,19.71326065,-13.75002861,-4.538861752,-14.2994957,-10.51234531
3.930388927,-0.658475637,-3.062223911,-9.629573822,7.368397713,11.0669508,-1.373594761,-6.553608418,12.65665722,5.126964092,4.792588234,13.37319279,-4.440669537,4.196294308,-7.942613125,-8.4734869
9.457227707,4.411684036,-13.00964642,-29.30283165,3.454075575,3.885317564,-11.3269577,-17.0890255,-2.376686811,15.88540649,4.200253487,25.89023399,-23.90311813,4.596468449,-17.31937599,-11.44549561
15.8455267,10.09622383,-7.789395809,-14.7116518,-0.499209136,8.114742279,7.525634766,-20.79000092,12.77708721,19.6489563,-10.33233738,28.09848976,-5.808492661,11.50111389,-15.83672428,-4.334760666
30.41120338,-5.733868599,-18.62238693,-21.75099945,0.31255433,12.67962742,0.311024576,-11.75989246,26.13158417,16.81235695,6.397593975,21.96918678,-19.37125206,0.603110552,-4.404236794,-20.23030853
13.32742214,-3.830498934,4.72476387,-19.17803001,9.553832054,-4.223509312,-9.960792542,-30.14883423,-0.790039063,14.2682848,-6.243403435,28.9008007,-17.73411369,20.06043816,-10.69368362,-1.607311964
-10.31718922,6.160945892,17.9101963,-7.56566906,-0.129238486,-20.87112808,-7.612030983,-28.17296791,-29.62152672,12.08375931,-2.070548534,9.66547966,-13.18221951,31.26443291,-9.357603073,7.772475719
-43.23141861,26.3671093,18.846035,4.318472862,-8.588190079,-38.54510498,6.459372997,-36.29614258,-26.58771324,19.69849205,-26.24988747,-11.22122097,-45.97782135,14.43606758,-16.7986927,19.65671349
6.571256638,-6.754378319,6.736323833,-8.519023895,10.10349178,-13.88445854,-8.111291885,-45.15436554,6.085272312,30.2068367,-2.478497744,33.51517105,-33.81856537,10.93893337,-1.767145753,3.246294022
33.78412247,-24.16203499,-18.16796112,-27.55224991,22.11291122,-8.650736809,-30.99257469,-2.326589823,-9.224143982,-7.225548744,23.96818733,14.03952122,4.999873161,22.89615059,22.14490128,-24.69618607
14.40258694,22.58528709,15.39240265,14.655797,3.505223036,14.10609818,17.0546093,-42.16950607,14.09699821,30.25298882,-15.39110374,35.37845612,30.70303726,6.60999155,-19.08340645,16.97755623
-2.930649519,-5.382060528,4.927323341,0.726753712,-5.119612694,-3.865773439,-5.030114651,-0.763470173,-4.555423737,2.240022659,-3.519286633,-0.892422676,3.965174675,1.058207989,-3.065157175,3.570986748
0.255119324,0.160800457,-5.324669838,3.980695724,3.806923866,3.461584091,0.99380827,-2.559281111,4.4186306,-0.885662079,3.077169418,2.77305603,3.505217552,0.022346973,-0.850734711,-5.10595417
5.03207159,-13.08555984,-8.69310379,-4.336680889,-3.629920483,9.024819374,15.01575375,5.68707037,3.770497799,2.288814068,7.204297543,-3.571086168,3.800147772,-17.26638412,-0.870397627,-7.578749657
12.69369411,-17.56873894,-39.27964783,0.725939453,-52.04447556,-4.083127499,28.64952087,25.68466377,21.99236679,-38.78880692,-18.81097412,-33.69430161,-33.47169876,-40.92254257,7.14233017,-8.633169174
1.988109827,-54.32769394,-37.69976807,-15.14086628,21.28030014,22.38702011,-18.0757618,17.61194038,45.71673203,31.30914116,36.56296921,-18.93352509,3.098000526,-14.56822491,24.31933784,-38.80179977
-13.06508923,14.53934097,-30.19465446,-6.449960709,-33.04819107,7.528264523,46.27524567,24.18238449,-9.628882408,15.30297661,11.79586601,-16.39426994,25.68690681,-1.789764762,-7.647391319,4.657622814
53.99678421,11.0724802,-9.354316711,-18.98752785,-41.89468002,16.07393456,55.12456512,-3.678328991,2.848636627,-12.32899475,-24.28856659,34.77417755,-7.646345615,-36.87489319,-21.77016068,-2.066125631
65.30947876,-13.31038666,6.779149055,-8.343571663,-8.282927513,23.86882019,10.34838867,-5.473631382,4.920259953,-33.30572891,-14.56437016,54.62882996,-22.07775116,-17.81011009,-7.797543049,-8.4488554
5.396737576,14.52696609,4.61460495,-8.9164114,10.64342117,-0.224859297,1.333060384,-2.442961931,-15.90604019,6.291835785,2.312612057,4.806146622,14.57532501,0.608703792,-1.076514602,-1.072888613
14.38852501,-2.513542414,-12.95454884,-3.67236948,-22.95535469,3.805976868,11.30609035,1.952313662,1.729413986,-12.11978817,-7.728058815,2.54652524,-7.182248116,-19.96662521,-7.95706892,-7.696956635
11.70528698,-11.38630009,2.785953283,-3.199181557,4.998491287,8.108848572,-11.34345245,-2.355360508,-6.423743248,-6.994611263,-4.814771175,7.554959774,-16.02537727,-15.68562317,-6.816245079,-2.710417271
21.05465508,-1.259448767,-3.985726357,-18.10724258,-9.18947506,5.096840858,-4.697035789,-10.23160458,10.58575535,-4.323745251,-23.95394135,13.7692585,-26.14732742,-15.34878731,-8.099833488,-6.013113976
10.81932259,-8.955118179,-2.277353287,-8.812494278,6.844870567,1.380513191,-15.31270313,-6.884106636,1.275252819,-0.269013226,-7.163311958,7.875245571,-10.50674152,-4.892577648,-6.56374073,-13.91275311
9.80193615,-5.01982975,-1.075214863,-9.658932686,-4.361505985,0.295054793,-10.43710804,-1.139936686,-4.128205776,-2.650892735,-4.43487072,8.650253296,-13.88199806,0.661727965,-10.03077507,-11.42795849
8.219783783,1.919903398,-7.833431721,-0.93021208,-8.556170464,4.095744133,0.588145316,1.156651497,5.65500021,-8.288013458,-3.428597927,5.759202957,2.726641655,-9.287133217,-9.887392998,-3.940707445
10.66464424,-8.226854324,-1.834381342,-11.87990379,-4.007303238,4.701035976,-13.47711468,-4.791231155,-2.50551939,-5.248093128,-0.103554457,1.386173606,-20.9241066,-2.359425306,-10.8766098,1.881999612
4.057934761,-13.73823166,-3.594594717,0.119282007,10.90612125,-2.980886936,-18.38755035,-13.38594723,-2.770918369,-0.030334139,-1.728865981,4.858172894,-11.06271744,-5.994887829,-0.138908029,-10.26831055
9.359044075,-2.276113272,-8.820605278,-10.95097065,-6.862469196,-2.196223259,-5.594597816,-10.30592537,-0.75667417,-2.785548449,-1.670627236,8.985433578,-13.73249435,0.444629967,-10.53881454,-10.28398609
2.149461508,-1.687796354,1.486607909,0.97134161,5.166081429,1.189913392,0.686230004,-13.00172234,-4.221364021,4.305486679,-5.136044025,7.241688728,-7.173340797,-0.699919999,-5.573644638,1.639651418
4.622533798,-13.49847126,-6.159681797,-11.01030064,6.336140156,-2.372172832,-5.994389534,-6.207809448,1.133520961,6.932347775,3.064102411,8.957992554,-15.5622797,5.049965382,-3.044472218,-13.47525597
5.635899067,0.806964278,-4.914678574,-5.41284132,1.514142394,-3.360866308,10.91313457,-1.348666549,4.153938293,7.047594547,6.42895174,3.11846447,-6.434762478,5.929023266,-2.611245394,-4.004406452
-13.76394939,3.093424082,2.583414078,-0.671356559,-7.871905804,4.435237885,8.07232666,14.00628757,-3.289060831,2.166878939,5.294110775,-6.915263176,3.146788359,10.98990536,-3.448970079,9.98722744
-13.43540382,8.371604919,-5.11796999,-7.792407036,0.127821565,-13.69518375,5.171481609,-1.854326367,-2.441569328,12.10565472,12.62799644,1.294803023,12.34729958,21.48553276,9.002033234,6.713810921
-13.14163685,1.899935007,-9.483948708,-0.389466673,6.593914986,-5.621116161,11.6988287,2.692631006,-1.90882349,18.01298904,16.47500229,-5.742197037,18.32279205,9.364240646,-5.191139698,-4.596409798
-30.78303146,22.89066124,12.39191914,12.99925137,4.582125187,-26.21159744,8.427652359,-16.53098679,-0.019123251,29.03321648,-9.222408295,-5.708404541,14.67775249,2.183318377,-0.791107893,17.68323135
-23.58455467,5.998753548,-14.303442,-29.90248108,25.72690201,-36.47488022,-20.35242271,-4.136322975,-33.05447769,23.18815613,24.27188683,-13.4648962,19.1413002,43.21310425,15.34183884,-19.0229435
-25.12894821,-10.0139246,2.071183681,-29.79224396,21.55450821,2.406203985,-27.61985588,0.729727328,-46.97919464,8.139620781,45.71074677,4.6968503,2.838604689,19.32939339,-6.283952713,-23.10982323
-7.588543415,-22.81488419,-24.63276863,-37.35664368,13.73612213,-40.78730392,-26.98116112,-13.4309082,-27.92751503,-9.368693352,20.78436661,-25.31921387,-21.31365585,4.76653862,8.169325829,-29.47029305
-44.43337631,21.96173286,36.4154892,32.00843048,-48.96604919,25.05671883,22.8247509,-28.94201469,18.01946831,29.13220215,-28.72809601,24.27960777,6.955187798,-42.24441147,-35.57569504,35.59799576
3.21119976,-2.394854307,-3.599764347,5.540886879,0.341593266,-0.804844856,-2.526243448,-5.046051502,5.204287529,3.523368835,-2.970915318,4.350984573,4.702180862,4.703185081,0.709812641,-1.885882139
-1.407367706,-2.555312634,-3.958641052,-3.172532797,0.028954506,3.586421967,-2.704123735,-1.704741716,-0.275953293,3.70622921,-2.164008856,-1.847471476,-5.354815006,-4.313974857,-3.271105051,-2.521513939
53.49694443,-6.006140232,17.93349266,35.04240799,-69.83680725,14.11189651,20.31980324,-30.20541382,33.30069351,-15.74258709,-45.34538269,40.85860062,-45.03800964,-27.65085602,-29.93162537,47.77634048
45.34255981,-17.64648056,-20.54056358,-37.3071785,12.70680904,1.032480478,0.347688466,5.618350029,4.559957027,-17.28518867,4.916675568,5.104158878,-2.839807272,7.79911232,24.09215546,-21.29302597
33.16595459,8.77223587,-1.866813302,-16.44295692,-46.71640778,37.06958771,51.3600769,4.196293831,-3.492782116,-19.51455116,-15.84170914,20.84067345,-1.811664581,-27.69969559,-31.18790245,-5.295601845
12.58413029,-15.19358158,-24.05028534,-5.08383894,-10.43709564,14.0987215,41.13727188,33.6047287,17.9882412,-16.93512726,10.19202137,-15.96691513,9.527941704,13.42905426,27.15340042,-6.994751453
5.205002785,-5.431213856,-4.475178719,2.912427187,-9.278341293,7.548108101,18.70985413,12.31698799,19.87312889,-7.250394344,-2.830332041,0.491344631,1.253623724,-4.02491188,6.17213726,-2.429798365
3.010612488,-8.385568619,-15.36976528,-13.54526234,-3.436965704,0.094272494,-2.62985301,6.844745636,0.977006972,0.815929592,9.470417976,5.157145977,-9.542805672,6.201797009,2.063220739,-9.52942276
-8.085886955,1.801200867,8.177244186,4.417257786,-2.173963547,8.972637177,0.0054154,3.233282328,4.810885906,6.860182285,24.45699692,2.551432371,11.68631268,10.24308872,-17.12609482,-0.803505123
-10.09252357,-0.969646871,-8.25179863,-9.92599678,-0.963540137,0.748591959,3.546219826,3.358818769,4.646756649,4.409698963,18.28446198,-1.284549356,7.982948303,22.16339302,-14.27463531,-7.930665493
7.583699703,-2.510891438,7.486378193,2.602226496,4.926163673,4.699846745,-1.695045829,-7.153488159,3.910218,13.04560089,-2.719780445,10.816782,4.617702961,-0.096631199,-11.8579998,-4.273539066
-1.946103096,-2.213543892,-1.17435503,-10.21072769,8.389342308,0.27428782,-12.24706554,7.432706833,-18.07739449,-7.614685535,0.681262851,-5.050494194,12.69839668,-0.353689253,0.049345434,-9.506322861
-5.389159679,-1.153110266,0.170117185,-6.604775429,-1.394320965,5.036727428,1.610859513,2.986278057,-15.86724186,-4.82816124,2.161892653,-0.521364689,2.527878284,9.756575584,-3.494512081,-3.533669472
-2.692863703,-12.11305523,2.298811436,-0.85957408,3.935410976,-0.090664588,-7.765665054,6.217195988,-3.714779377,1.656829238,1.725668311,-2.720875263,-3.849579334,-11.38601685,0.51497829,-8.440718651
-4.942148209,1.923713088,6.662365913,-10.33738136,-2.293626547,1.117438555,-1.439877987,-7.391420841,-5.865867615,0.826763511,-3.961208582,6.406095028,1.769942641,-0.006616682,-11.33330536,3.254848003
-4.598495007,4.36994791,-6.03289938,-6.7357831,-5.841078758,1.462351203,4.979228497,7.038668633,1.505367875,-1.684209943,1.871660709,-1.343985319,-0.504480124,-8.056600571,-9.80855751,-0.700591326
9.279167175,-6.683316231,2.65391922,-11.34400272,4.723378658,6.173136234,1.46483016,1.154904962,-1.811572909,-1.760721326,5.239835262,13.90148354,-8.717328072,11.34299755,-9.748807907,-0.60447669
-5.048523426,9.20565033,5.336957932,-10.10837746,2.229364634,0.676626146,-12.79852772,-9.076475143,-7.035012722,3.672745705,-4.275274754,0.205728441,-1.791967154,8.132082939,-10.49581909,-0.381958902
5.582624435,7.455892086,5.168432236,-4.149240017,2.456201792,3.626905203,0.682780802,-3.029268265,0.270852357,6.706395626,3.577983379,11.68426323,0.831010401,-1.17244494,-4.822719574,-4.87560463
10.06652927,9.022680283,-1.314065099,-7.077942848,-6.162733078,-0.569939911,0.850768447,-3.872479916,-2.492441893,4.908552647,-0.142408371,6.889823914,8.352067947,-4.720767021,-14.817729,-2.401406527
7.945514202,1.694053173,-3.227386236,-10.6573019,4.485955238,-9.141690254,-8.091453552,-13.10374546,-10.87080383,2.284275293,-2.862971783,10.69744396,-7.165277958,1.411073327,-3.860443592,0.165110692
10.24881935,4.38461113,0.08541593,0.091491044,-7.849091053,-1.134466171,2.371363401,-9.790662766,6.447501659,1.653243303,-7.7682724,7.024201393,-4.059456825,3.730968714,-5.216526031,4.764971256
6.287278652,-4.334199429,-6.644474506,2.282352209,-1.307085633,2.230879307,-1.298724294,4.292348385,5.869225502,-4.650774002,5.33061552,7.612025738,-8.306116104,12.33266068,12.6353178,0.170215353
12.4526186,16.19456863,8.282917023,1.263833642,0.562320948,-0.337135911,14.57626534,-1.430460095,7.383797169,-3.562252283,-3.943641901,18.64319801,4.365036011,14.88716602,3.188418627,19.13973618
-1.207845807,17.1097126,-3.297584057,0.969165564,1.99316144,-15.63215733,4.599286556,-11.97091007,4.832239628,10.86380863,-6.162919998,-4.976779938,2.294938326,11.58852577,8.493372917,14.07034969
-11.14347363,-1.182846427,7.805942535,-33.05580521,13.70549297,-11.39469624,-20.41892052,-12.27788734,-36.68475342,9.923027992,24.48606491,13.19681263,-1.885274529,38.08957672,-7.555963516,-17.48065567
12.96871376,8.533602715,5.730806828,-4.161739826,1.988530755,-32.44359589,-4.254133224,-43.26456833,14.03805256,20.84808922,-28.98842239,18.61928368,-28.6119976,5.632992744,-11.15973854,2.886814594
-2.247664452,28.20338058,21.98857307,12.80098915,-9.951245308,0.251833111,16.23096848,-29.81640053,22.34444427,29.18600655,-27.44015884,31.8969326,21.97688484,4.86882019,-14.9892683,25.88259888
-3.536185265,1.262060165,5.211693764,-2.872078896,1.649646282,4.730833054,-4.800609589,3.277759552,-0.102236748,-2.60650301,-3.964020729,-5.211607933,-5.145583153,-0.748396397,4.774328232,5.406891823
24.18435287,-25.85492706,-33.68809891,-29.16053772,1.388708472,30.75098419,13.34996223,-13.71561241,29.30430222,14.05580139,20.41428757,30.51286888,-25.70106506,0.126695648,-21.54392433,-26.01666451
6.406030178,-23.69759369,-7.346755028,-9.104450226,37.02837372,12.85342312,-30.189291,-4.752867699,24.24450493,22.20161629,12.0438261,8.295783043,10.30335045,8.311676979,-1.13248992,-21.28751373
-2.229047298,-29.49721527,-17.11504555,12.16172886,-40.90026474,41.73332596,31.50092125,40.02205276,29.3579483,-20.29474449,28.31651497,-13.03554821,6.007427692,0.852174997,-0.744060397,-3.732648849
11.10741329,7.372861862,2.908011436,-6.077802658,0.015108977,5.149040699,13.28980064,-2.895823002,16.7836132,-0.351675004,-6.014556885,10.36563969,-2.846991301,15.31859589,5.426383018,5.636086464
-2.974695444,-5.55452776,-6.985647202,-3.557154179,3.619853258,-0.060728505,0.050153669,2.56423378,12.08086205,13.53476715,21.16838264,11.2603054,4.320641518,35.51597977,4.244918346,2.545417309
4.219600677,-22.94607544,-3.245010853,3.664181948,6.043216705,13.19027901,-5.578487396,5.104685307,15.82153606,-1.460360765,22.15003586,0.623635292,-6.569861412,8.018753052,1.8934021,-10.82023335
-6.165044308,-8.951824188,6.24778986,0.270105451,-2.043535471,3.577727795,6.024552345,0.097795144,6.262637615,6.896521568,10.00488949,9.777643204,-1.11637044,12.926754,-14.7741642,0.789245784
-0.32366693,-11.14133072,-1.550687909,0.321562618,-0.832240701,4.245126247,-6.040023327,6.392096043,-1.178105593,-2.725673199,17.31591606,-2.117250443,5.204729557,9.040487289,-4.92179203,-5.433485031
8.287923813,0.526652575,-9.405666351,-9.449516296,-2.316974163,0.215041429,2.69773531,11.86032486,-3.821367264,-7.526493073,5.091266155,-0.435051978,8.277863503,7.57950592,1.044360518,-8.061478615
7.100791454,-9.07256031,-4.707442284,0.335256726,-1.554192185,9.834708214,-6.095937252,7.151013851,2.468263149,-6.260151863,7.474710941,1.852834821,-3.778500319,1.993268728,4.931506157,-9.536251068
-4.729272842,-2.256240129,-5.139780045,3.598856211,-0.029024035,2.716832399,-7.943301201,12.88179111,5.801012039,-3.269227505,6.264444351,-10.72578239,0.127072468,-5.356484413,10.70240879,-0.791103899
-8.649471283,-2.942145109,-5.648934364,3.498484612,1.415820956,-6.087947369,-12.62536716,0.304953218,-6.398761272,-4.816573143,6.177635193,-2.19434309,-7.758473873,-3.693272352,2.54079771,-0.552972853
1.752805829,-5.139448643,-4.581218719,-0.105250634,5.285336971,4.102688789,-13.82791805,7.182072639,-1.588604093,-8.148495674,-1.555582762,-5.906067371,3.263947487,-16.18771553,6.38714838,-13.32078075
-4.798886299,-7.818545818,-2.903352737,6.973463058,11.24269009,2.680651903,-12.31006622,1.883051634,-3.52483201,-2.714676857,-4.712817669,-7.603615761,0.519493103,-11.39617538,10.55261803,-6.348995209
-0.884185076,-9.578635216,5.363205433,-2.459531307,-3.588228941,-3.757968426,-14.34586811,0.978856027,-8.710175514,-6.545898438,1.796109319,-5.474390984,0.164456427,-11.82083702,-2.103049755,-9.551580429
1.719892383,-9.21644783,0.981070578,7.121406555,4.984332085,1.288672209,-9.053719521,3.56025219,-5.632289886,-9.33442688,4.353591919,-3.886035919,1.914207458,-13.42830563,2.248814106,-12.51040077
-10.8478651,-2.315514803,4.202943802,-1.377141833,3.760015488,-5.625812054,-7.51136446,-0.415801167,-7.634358883,0.742853701,3.123119354,-13.54752922,2.970915794,-10.63288879,1.3083601,-7.517924786
7.136844158,-13.812253,-1.712012649,5.947464943,3.073067665,0.585765719,-4.993413925,11.11709213,4.564626217,-2.698707342,-4.446595192,-2.426318407,4.276163101,-12.03072834,14.45846272,-13.14456367
-11.09284496,-4.247220039,-0.161642238,-8.279970169,2.987645864,-11.80261135,-9.253102303,-4.649681091,-8.839018822,3.086367369,1.30142343,-9.211948395,-4.378748894,3.451997042,6.653824329,0.338349402
-0.388334543,-4.623430729,-2.122175694,-0.540130734,3.879467487,-2.847095013,-4.441972733,0.763236165,-0.71450156,0.580099761,-7.289435387,-3.689693451,-1.837226391,0.241326109,9.694437027,-8.834266663
-7.667141438,-1.205141425,0.943895936,6.53668499,-2.25932312,1.981477737,-4.228336334,8.239243507,-0.641862631,4.226650715,12.69890976,-3.787290096,1.595142484,-6.335705757,-0.394337237,-1.87391448
-2.166199207,-1.029277921,-0.393721521,-0.517781436,6.530713081,-1.28767848,-8.855641365,-4.779704571,4.278974533,14.24607182,11.98393536,8.800737381,6.498494148,4.83927536,0.951117635,-0.595581651
-9.336151123,19.46985435,-12.10496712,-15.48242855,-4.42535305,-15.48146534,6.695444584,-5.447795391,-2.546408415,9.525508881,-17.65953255,1.127803922,3.559646368,5.460967541,-5.855304241,10.54198647
2.597089052,8.897090912,-26.67200279,-27.17887878,11.2708807,-22.81141281,3.701180696,-12.38894367,5.20332098,15.48336315,-3.50949049,14.71828079,-9.441506386,21.54434395,13.90846729,-2.443617344
5.01083231,9.526251793,-4.630418301,-44.79116821,3.619033813,-50.71033859,-16.49892998,-29.04805183,-27.46289253,0.267990172,-7.345729828,6.671835899,-32.03163147,31.99483299,-9.29087162,-2.05890274
13.28241539,12.12706661,-23.30656815,-36.73246765,7.041203499,-32.03266907,3.30014348,-5.719756126,-8.075073242,8.100514412,-6.858340263,9.945672989,-6.079186916,38.01628876,7.784901142,-3.432723045
45.4748497,9.432309151,5.787034512,8.119252205,-2.648685694,7.871073246,15.93927288,-33.34472275,18.53719139,23.47556877,-22.79706955,21.91496277,5.079849243,0.813693881,-3.050500393,9.500401497
-12.31359482,4.201741219,9.666353226,11.12609196,-2.473152161,-5.893719673,0.291040003,8.776034355,-2.913107872,0.862733126,12.96100807,-6.956036568,6.348840237,6.23497963,0.584637761,9.219399452
34.29294205,-56.82381821,-54.70643616,-35.71562958,19.39643478,62.78007507,4.566664696,-7.283449173,55.83014297,15.98654079,24.99859238,39.85403061,-33.52217102,10.88778973,-37.45957184,-57.21858978
5.453843594,-42.10549164,18.09610748,0.428751528,33.35349274,32.70692444,-22.41220093,24.72639465,-2.475033522,-17.70027733,37.83935547,14.61197472,13.68536472,15.44172478,-19.09824371,-7.48056221
-10.99428463,-31.28395462,-12.98174191,5.716061115,-3.762854576,49.84321976,-1.077707767,53.60619736,14.604105,-18.47856903,48.3458786,-19.68958092,8.726819038,21.60484123,1.969384551,-10.88374043
12.87974453,-4.189704895,-6.037602901,-12.29116154,-53.31899643,16.58463287,27.10978317,7.525467396,10.09545803,-17.19561577,1.563089967,12.01097775,-13.89691257,8.13008976,-24.20314217,3.797724724
4.383234024,7.283321381,-3.899998665,-18.3246994,-6.947807789,22.01206207,9.447095871,-3.399367809,2.872117281,12.48715019,13.42981052,20.75732613,-8.779750824,22.56772041,-27.55229759,-5.120036602
-5.297812939,-16.77847862,-0.982752919,-5.03951025,6.084032059,17.51976013,-8.530638695,15.8053484,-5.581264496,-0.582309604,16.66749001,6.196796894,9.518972397,11.40759563,-5.850234032,-13.84920311
-7.949305058,-1.75652802,-1.537575603,5.20187664,0.110412978,-2.677400827,9.538526535,1.751455426,6.330182076,10.47195339,11.29648685,2.212103367,-2.695054293,12.34470844,-6.414997578,6.717741966
9.004714966,-5.034781456,0.739986658,-13.26409435,13.45986843,1.107676506,-14.51375484,-1.286141753,-11.80911541,-1.798826694,2.564185858,5.313719749,-8.453062057,9.422485352,-0.696906269,-5.796032906
3.002776623,-4.31883812,-1.722407341,1.937859178,-1.267739177,5.19742012,-3.748280287,2.760593414,-1.395606041,5.261718273,9.983254433,0.381013811,0.76605171,3.795860291,0.114064768,4.176480293
-8.670189857,-7.9922719,-4.002510548,0.521289408,6.832098007,-5.495855808,-7.263112545,1.904825687,2.548923969,3.160809278,7.401826859,0.816386342,-0.660837114,6.546720982,4.099987507,0.195225969
-3.051533937,2.444510937,8.890766144,5.416670799,5.012554169,8.630846024,-8.870611191,-0.262477309,-2.518689632,-1.933676839,6.009422302,0.431434602,3.620909214,4.761759758,9.778388023,-5.36493206
-2.952912807,-5.28004837,-4.69533968,-0.567999363,5.901638985,3.890957355,-0.455694139,1.71862638,4.991357327,-1.068315268,4.087745667,-9.092842102,-0.782786787,-9.308878899,11.83886242,-6.682343006
-1.411682963,-6.148104191,8.349399567,2.999503374,6.43802309,2.591237545,-3.545795918,8.645698547,-10.37258625,-12.67110538,4.95054245,-10.97652721,4.52712822,-12.02548218,4.417201042,-6.043226242
11.64730358,-6.697378635,-0.484286875,8.929791451,11.22344112,6.040842533,-5.703152657,-5.251378059,1.129340887,-5.210905075,-5.153046131,-2.145356655,5.843218803,-15.0879364,12.23458004,-12.3580265
-9.637922287,-3.370907784,-9.606881142,-0.231656849,-2.094930649,-4.18062067,-12.25576019,11.49191189,-9.361753464,-9.649049759,-0.727961063,-10.27392387,2.030278206,-15.48997021,-1.596934915,-8.26325798
2.227539301,-6.094515324,-4.018810272,7.997230053,4.055212021,-0.937317431,-12.11068058,11.52493477,-1.846104145,-8.641041756,-4.450310707,-11.64738369,0.885063827,-2.001072645,13.04606056,-2.328188658
-4.992417812,-5.280373573,-1.617490411,4.621504784,7.265237808,-0.249022961,-3.368438959,6.891657829,6.894021511,8.556315422,3.865961075,-7.046367168,9.574230194,-2.658196449,7.349163055,-11.06842899
-13.22506332,-11.36301327,-0.982260644,-0.225218475,6.881895065,2.033018589,-8.481196404,4.327590466,-4.539844513,-1.438640356,6.323773384,-6.323532104,-4.436005116,0.397470832,4.087894917,5.211680889
4.754908562,-3.535660744,-0.906624854,1.114319205,-2.529280186,2.698870897,-3.624387741,-0.606069148,-3.415934324,-0.606356084,4.392704487,-6.089530468,3.746346235,-1.920437098,6.451187611,2.402695894
-4.385761261,-0.819380641,-11.68348408,0.463662505,2.34607172,-0.915502489,2.117908955,6.265727997,2.948903322,-2.864309311,5.348232269,-7.910137653,-1.716332555,3.067338228,13.47522545,1.189554334
-3.603542328,-1.056512475,5.364746571,5.128237247,0.346366882,-8.417266846,-1.007843733,-1.591479897,-4.826779366,-2.330254078,5.823943615,-9.189002991,-1.663715124,7.600359917,11.80425453,15.10621262
-2.970297813,-7.719038963,2.147931576,-12.12701988,10.24052906,-4.589955807,-4.817586422,-3.934066772,-7.809766769,-2.277883768,7.544383049,4.350418568,-3.601368904,13.44182777,3.107590675,2.539926767
-19.63068581,7.157692432,-8.76996994,-3.004184723,9.045519829,-18.05713272,-9.906441689,-0.052702133,-12.16357994,18.87642288,8.1427145,-11.90068531,-0.288125128,3.05065155,-1.486712217,-7.799347401
-18.89220428,18.92519188,4.429931164,1.82623744,12.16143131,-13.26172161,-10.22165298,-7.208185196,-2.600295067,30.44380188,12.17776585,1.005862117,1.069085717,14.49319553,-2.53982234,6.831055164
17.5902977,-6.930051327,-9.7738657,-37.85658264,28.50275612,-28.36626244,-18.74320602,-23.41306305,-11.31979847,14.76366901,10.71834564,20.77628517,-5.408585072,29.23596764,22.25869751,-24.31362152
-19.24041939,32.81086731,10.33237267,-24.0284214,-14.73845768,-14.06870079,23.13034058,14.30427456,-21.89666176,-1.310305357,-3.987320423,-2.789225817,4.849450111,26.7886467,-13.97360802,20.84527206
34.52752304,13.28937721,2.329354286,3.637357473,8.917924881,0.790209591,7.753815174,-33.56291962,29.70127678,30.22807884,-15.00122738,30.03842163,10.68251801,2.355723858,3.05184865,4.197617054
38.30624008,-25.42559814,32.00478745,32.40101624,40.94960022,34.65082169,-31.27735519,-32.76097107,34.66941452,33.24440002,-33.67198944,34.04623795,-35.78779984,-37.58220291,-39.89715195,-24.48742294
-21.72230911,-50.65064621,14.58977127,31.68291092,11.90494061,52.74595642,-17.04910278,39.65813828,57.25131989,-10.98877239,47.87479782,1.017751932,-11.34949207,43.28471756,-2.938758373,-14.73016167
-0.822942495,18.43552017,9.015605927,-21.7352314,28.39731598,-0.843421578,21.15985298,2.527593374,-21.90467453,29.04796028,0.272484332,13.99007416,45.79198074,24.42397308,-23.04710579,-4.814909458
-16.96593857,-11.19731998,-6.172780514,-20.32856941,-33.63471222,12.42788887,10.4640274,15.66462612,1.458860874,10.35605145,24.55045319,-8.275960922,-15.95434666,39.24111938,-26.8537159,3.105020046
0.497833133,-2.676697493,-4.631487846,-15.54088593,-49.15335464,22.09022331,38.19192886,16.83748817,-9.932888985,-22.8407135,12.49151611,-4.952318668,-7.509852886,13.51231194,-26.41089058,4.36505127
-2.462800503,15.09395409,-1.70975852,-10.15820408,-0.183684871,1.897349834,13.09924507,-0.398722798,-12.65945244,4.749488354,4.208778858,2.13875246,1.91645503,12.78917313,-9.178022385,-2.296044827
-8.947836876,0.346326292,-2.036910772,-6.233215809,-0.174722359,0.611626625,-4.070003986,5.820827007,-17.27550697,0.283305466,6.030882835,-2.880080223,-2.520130157,9.655310631,-10.68034554,-2.559212685
-8.553377151,-10.00267601,-7.525566101,-3.173345089,-9.066145897,3.010808706,12.09178352,13.63687038,3.949763775,-3.07322073,23.05543137,-1.274076343,-11.1885767,11.69170856,-9.09566021,7.98287487
-12.88174725,-7.60962677,1.585628152,6.663050175,10.46340656,-2.50340724,-7.30236721,10.30652714,-2.219869614,1.867520213,2.12994051,-4.768723488,0.839217722,-2.050869942,6.665825367,0.909198642
-13.98160172,-0.992915094,9.76274395,-4.499755859,4.248267651,0.335718751,-10.25354481,-0.678940415,-4.708625793,-0.188613191,9.14757061,-8.828377724,5.449490547,12.95091724,-3.429293633,-0.586553931
5.35089016,-8.114311218,0.619085431,-0.486246556,-0.696249723,3.185797691,-2.548826933,0.258090019,-2.256002903,-2.901081562,0.991626263,0.256590486,-9.483856201,1.964656115,0.277934581,-1.920705318
-3.272808075,-3.804969072,2.932278156,-0.030154889,2.859905958,3.726144791,-4.498572826,0.468423218,-4.991057873,3.51913023,13.0217123,-1.978029966,0.847008586,8.764101028,6.360499382,-4.742847443
-5.636313915,-14.13315868,-0.393605828,4.607530117,-5.128999233,0.712386847,-2.492913008,-0.115178853,3.085355997,4.735440254,12.2403965,-2.038973331,-9.487599373,2.331697702,1.681229472,-1.699860454
-3.00351572,-6.166316986,-3.466174364,2.89450407,-4.459663868,-7.15742588,-7.307641029,0.938495934,-2.388004065,-4.011022568,-5.644788742,-5.14791441,-3.722563267,-1.116911292,-2.518158913,-4.125896931
0.534429014,-10.66881847,0.354565501,7.097921371,0.445012808,1.884246707,-10.90893841,10.34263515,5.382102489,-2.669135809,-1.526655316,-4.340873718,6.809756756,-16.50030136,1.58279562,-5.303514481
-4.552713871,-10.44370556,0.347085804,9.237873077,-2.294006348,7.01915741,-4.223435402,3.155962467,-0.181394488,-1.611882567,7.460538864,-4.181049824,5.513508797,-3.171838045,0.02242613,-7.022547722
-9.615906715,-9.161929131,-2.698966742,2.937296629,2.837139606,1.525753617,-20.07720757,5.56175375,-4.888994217,4.398590088,8.352697372,-8.159869194,-0.204403788,-10.64239788,-0.635925233,-10.33724022
-1.160550117,-8.863223076,-1.495685697,5.332538128,-5.319934368,-1.734703779,-0.534764349,0.330336839,6.267681599,-2.162215471,4.139208317,5.90253973,-3.772792101,-4.943180561,3.624230862,4.194448471
-8.202532768,-10.89926529,-12.39608669,-2.891010284,-1.682556391,3.481921911,-3.360227823,5.763997078,-2.845194101,1.058339238,7.162974358,-9.470397949,5.005345821,3.901591539,8.716264725,-7.124508381
5.256973743,-8.759837151,1.804426789,-9.993474007,-4.089707375,-0.420992553,-6.29505825,2.259470224,0.021049745,-9.749872208,4.407680511,-4.078268051,-8.813576698,3.635694027,9.009612083,-6.469199181
-5.133547783,-9.863603592,0.823880017,2.493863821,12.79712105,1.813897491,-11.84711742,-1.456666589,3.598790407,-1.583842397,6.887273788,4.820959568,1.843804836,8.329366684,1.930297017,-5.344371796
-5.1854496,4.169492722,-1.570846319,-1.066221476,8.019014359,-7.963904858,-4.315247059,-0.523145437,-9.523778915,1.371195197,0.318255574,-3.627938509,8.333500862,-4.668100357,2.30270195,-2.241666079
0.955652177,-19.78820992,-1.619958043,-0.377036363,-3.619567871,2.468633413,-4.445223331,0.273417115,7.961290359,-4.505944729,8.558159828,3.489756584,-7.778248787,-3.988161325,-1.581301928,-6.899701595
-12.25150681,-3.700830936,20.39919662,-0.554058611,23.01644897,-1.756541133,-21.92117691,-4.507946491,-6.817004204,5.38090992,18.07553291,7.490261555,-5.460111141,16.09237289,8.62878418,5.5087924
-40.14619064,8.7853508,-3.211347342,-16.33650398,31.25416756,-58.7240448,-37.89494324,-21.75077248,-18.54884148,30.30116653,12.45502949,-12.59987736,-0.465173095,14.4078331,14.29864502,-4.876036644
-1.865555167,23.47001076,-23.00838852,-57.69032288,15.17002392,-61.93259048,-3.987310886,-8.134651184,-23.65723038,10.27934456,-14.11310196,0.638917089,10.27427292,40.18133163,14.11191559,-4.707425117
2.14402318,-1.148496509,-17.01333618,-33.11419296,2.273427725,-40.94986725,-0.718006432,-11.56796169,-2.514589548,0.623986781,-23.2640934,8.648839951,-14.93575191,25.40716934,3.833871603,3.843309879
-3.869700432,-40.39525223,-43.32679367,-46.65138626,-11.74280071,-55.34326172,-39.36666107,-11.16034126,-20.63239288,-17.73557472,-14.84734344,-16.58788681,-37.38718033,-12.18216991,-6.069353104,-22.13518906
-19.5232811,-18.17586517,-5.316129684,18.08571434,-5.225523949,17.1085968,4.740299702,15.67585754,20.25976372,14.74107075,19.6973381,-21.92723656,-7.561882496,13.66351128,16.11449814,7.982682705
-41.83079147,-30.4276371,-17.85149956,49.90835571,28.96966171,32.46170807,-19.21608925,40.38377762,14.47569847,26.68947983,30.25502205,-39.50868607,19.74192047,34.51573944,5.735330582,-27.76865578
14.044384,9.331818581,-11.23590946,-31.02367783,40.68831635,13.42365074,19.04323006,-5.803709507,-2.410754442,36.01055527,4.780557156,8.161595345,37.8495369,7.535760403,-16.89013863,-24.49995613
-9.23266983,-21.66824341,1.529682636,13.00035954,4.549528122,15.33898926,-17.55957413,19.23146439,10.2243557,-10.72220325,17.92495346,-8.6039505,-8.837228775,-5.099020004,-10.80191898,-11.94384384
0.708789945,-27.49199486,-14.67830467,4.271528244,-19.57516289,23.18027496,1.684692383,13.09466648,22.38765335,1.804837346,13.75556755,8.822383881,-16.63618279,-7.052606106,-19.25285721,-15.79078579
-10.4640646,-5.823491573,15.38830566,-7.884744167,-2.992055655,16.04948807,-1.660090566,12.42128277,-12.66740894,-18.45816803,10.22814369,-2.258303404,0.011551254,2.087019444,-11.67351532,-6.930515766
-11.126647,-5.86884737,-15.67523384,-10.12489223,-0.117257379,-7.191322327,-8.963284492,10.61354733,-6.905816078,-0.879229784,5.556202888,-16.50964165,0.586390734,0.040058911,8.286839485,-8.814214706
7.703125,-1.860002875,-7.639214039,-5.540483952,-7.111862659,-0.136464983,3.656160116,-2.499560118,0.225174278,-2.848343849,-3.706977844,-1.442075968,-4.581018448,2.611677408,8.515011787,1.264788151
2.644382715,-5.561923981,-8.849721909,-10.57789516,-6.528917313,-1.905413389,-4.61339283,2.953271866,-1.713383198,-3.120955229,2.639374018,-6.926504612,-6.110510826,3.555420637,10.16720295,1.077789545
3.060922146,-5.394617081,2.918407679,-6.070968628,-4.079047203,-1.639687061,-7.985523224,10.51003075,-2.609140873,-4.469017506,5.081827164,-0.923887432,-0.278198719,3.393707752,-1.679068327,-1.271072626
0.663443208,-2.638129473,2.804448366,7.562844753,9.135368347,2.521939278,-15.6138382,4.012038708,-7.176257133,-13.73747921,1.01992166,-1.860342622,0.440600395,-3.890093088,3.673648596,0.136807129
-7.885946274,-1.869396329,5.063764095,1.032993913,6.03439188,-9.032124519,-4.827285767,-2.701931953,-6.09445858,3.178301334,0.807765603,-1.585878611,-0.956768453,7.562154293,16.56199646,9.452458382
-8.088502884,-2.295114517,4.871350288,6.246035576,9.925976753,2.348367929,-9.84303093,8.29846859,3.558186531,-0.404906392,7.209452152,-8.711688995,1.65896523,10.55600166,9.706423759,5.707232475
-4.447516918,-2.673535109,3.369933605,4.579517365,4.808552265,-5.611542225,-4.478094101,4.543099403,1.059649229,0.536505461,-3.26883626,-2.226861715,-2.065194607,-3.082992077,2.098717451,-0.931768179
-6.68969965,-10.45253181,-4.90487051,11.57434654,3.632238626,11.56584167,-4.862667084,13.70037365,10.02447605,-4.913305283,2.250602722,-9.24849987,-0.32924062,-6.592439651,-2.743648291,-7.71852684
10.97521019,-8.015379906,-8.114776611,10.46790314,-3.043270826,21.02305603,8.258136749,14.00702953,8.328484535,-14.90724277,-2.258085251,-4.821852207,2.236867666,-15.30363178,5.592494965,-2.309453487
-3.936299562,-5.049479485,-3.375588179,2.587609529,-2.807511568,15.94747257,0.740990758,9.288601875,3.734692574,-8.668523788,5.937719822,-1.299717903,0.002797809,2.297802687,-0.640693545,-5.367254257
-10.66571712,-8.203391075,-6.493396282,0.968752742,0.082197703,6.630851746,-7.010059357,14.24513531,-1.927537203,-7.842198849,13.6484623,-11.38003445,-0.145105898,4.492860317,-1.002649665,-9.135584831
-0.860078335,-2.513930559,-2.082828999,2.045356989,1.889886975,8.678675652,-2.601452589,6.37142086,-6.290638924,-0.645564079,9.636804581,-2.608593702,7.493418694,1.502720594,7.787694931,-4.056003094
-5.097582817,-3.360409975,-0.102359921,1.841742992,-1.537276149,6.561537266,-12.43657875,10.32434464,-4.884607792,2.718663692,9.418038368,-1.154321551,2.889126301,-1.892580152,-8.618601799,-6.930912495
-2.168176651,-1.130894661,-8.491092682,-4.679150581,-1.000876784,0.50291419,-4.933393002,3.812723637,-5.054025173,-0.100233607,5.855800152,-4.651515007,3.301564693,-5.033704758,-12.91792965,-14.14817238
0.2932401,3.965137243,-5.841317177,-7.722138882,7.761017323,1.449869275,-3.675786972,-5.69035387,1.768597722,7.927767277,7.065179825,4.450303078,-11.55009842,15.33282948,2.542535782,-4.439723492
3.715952873,-4.190755844,-9.215324402,-16.52700615,4.405629635,-3.996463299,6.344281673,2.452919722,2.338069677,-2.184898138,6.442350388,-5.2138834,-8.53318119,4.734203339,10.78738403,-13.03367043
-6.51040411,-2.839507341,16.08398628,-6.383516788,13.20112705,-3.555111647,-9.608262062,-2.575862169,-9.620084763,2.871993542,15.02970505,1.184301853,2.841453314,15.36501122,0.431542367,3.421411514
-39.75391388,-2.38929081,19.34310722,23.8869915,35.47240067,-50.62342834,-38.78082657,-26.78276253,10.06259251,36.6408844,3.371925831,-3.931435585,-7.71791029,10.02058029,23.86864281,5.201438904
-3.935107946,-17.11548805,-36.26839066,-44.37601852,13.91679287,-55.13825607,-24.72307587,-13.04379463,-12.12512493,5.316884041,21.43248367,-9.674182892,-22.40242577,43.51102829,15.2573595,-18.72719002
8.338000298,-11.07194328,-24.5702095,-34.79967499,0.25255236,-23.43911171,-10.24929237,-1.54167676,-1.24761796,-9.830337524,10.89527225,-2.490076065,-25.46970177,56.39559937,19.9028244,-7.68054533
-27.46837234,-49.86931229,-45.07888031,34.03092194,28.81250954,28.02909279,19.78304672,34.15839386,35.66443634,28.33285141,32.13037872,-27.95219612,29.41475296,33.59375381,38.80390167,-21.01818085
-14.75724792,-12.74125767,-13.7305584,22.20569992,-3.293259859,18.94252586,4.236228466,20.43334389,19.68935394,8.605887413,12.31148815,-16.38877678,-16.45388412,18.38296509,10.20932198,-3.683347702
-28.44411659,-14.9836483,-26.81916618,36.96739578,-7.709403992,8.735334396,22.33307457,30.48210144,23.03662109,20.98226547,17.54865646,-33.63594437,2.196015596,9.062094688,31.27873039,7.763596535
-21.78941154,-18.64774704,-8.823127747,20.64498711,30.30653381,21.81583023,-20.70135117,22.39130592,24.82793427,43.15299988,25.10405922,-7.730145454,16.84524918,17.98049927,13.21432686,-23.58909607
4.059102058,-14.65287495,7.024205685,-10.07025337,3.281249046,43.80948639,-1.95456028,21.11865997,7.552589893,-25.70899963,15.72048759,3.711250782,4.800957203,-13.6636591,-27.52027702,-25.64879799
-13.68075752,-9.94614315,-14.88741398,-5.314874172,12.53805637,-15.92576694,-18.4859314,-5.12099123,-7.921779156,20.40341377,5.917491436,-13.24583435,-6.196551323,7.479649067,3.342497826,-1.077358961
-13.75022125,-12.7582655,19.50223541,15.7833519,25.03911018,16.91169167,-27.93903542,8.611866951,6.154440403,-11.09104633,7.72099638,-0.800621629,1.309579372,-2.585890055,-11.24150848,-1.641227126
-0.772647738,-9.138546944,8.531180382,-0.45536828,5.110526085,6.60916853,-15.81899929,18.13125992,-10.92342567,-20.23514366,7.430452347,-2.118618965,-2.293313742,-6.965481758,-4.479945183,-8.096137047
-4.994379997,-0.266598731,3.53340888,-10.15396404,6.313367844,-10.25328732,-4.909690857,1.121994376,-0.695765793,0.493784189,6.565301895,-5.07091856,-3.776752472,3.985991955,-1.961344957,-1.800914764
2.948093891,5.110600948,5.412883282,-2.614685059,4.529417992,-6.651047707,-10.89883614,-3.011640549,-5.603703022,0.6003052,-9.466637611,-1.179927349,-2.471362829,7.282888889,11.21246529,5.88087368
-12.76266098,1.25786221,7.426611423,4.403560638,10.98367691,-9.04397583,-18.10140228,-5.511528015,-10.47695637,5.60521841,5.919482231,-4.673058033,5.526036263,13.68342495,10.21102619,6.814371109
-2.102866173,4.019695759,5.442047119,-2.680953026,5.963255882,-20.2153759,-12.74674606,-3.425829172,-8.022025108,-4.282519817,2.834204197,-2.251644611,-8.331566811,6.915857792,11.53019905,15.05353832
-2.001985788,-2.9342134,17.49337006,-0.182105944,5.654508591,-10.42798328,-9.190872192,-4.996576786,-2.75212121,-0.445315659,-3.582608461,-0.069798194,-8.056682587,4.480315208,12.5353508,8.955051422
6.041874409,4.436760426,16.44347,-8.009729385,5.875084877,-14.29061604,-6.862058163,-12.20028782,-9.289054871,-0.125043869,-1.484561682,-2.834644794,-1.411165237,8.381681442,14.91862392,6.316030979
-3.495533466,-5.738333702,-4.622230053,2.690825224,2.588150501,-0.235160083,-7.513700485,-4.812918186,11.6197691,8.131779671,6.837218761,3.955103636,-7.483181477,0.512213886,4.285103798,3.48732996
1.929542303,-14.05775356,-6.859807014,14.11524296,5.802410126,0.467806786,-9.509828568,2.550590515,12.67887688,-3.346388578,5.119379044,-4.085198879,-9.982487679,-5.076675415,8.651851654,-3.819015026
0.524122655,-7.007612705,-9.208306313,9.829087257,4.945971966,2.873336077,14.77879047,8.051456451,15.46996689,-4.210456371,8.454937935,-4.095496178,-1.228229403,-0.700145185,17.22544098,3.211774826
-0.451941848,-12.77869701,-5.399786472,12.44248581,-2.480544329,12.94589996,1.742575407,10.67466068,15.91628456,-6.368879318,12.36113453,-8.806166649,0.682812929,0.439357609,9.27525425,-9.435632706
2.51857996,-8.727452278,-0.545960665,6.312508583,-2.367884398,14.02685642,6.845500469,3.542597294,2.755933285,-7.231036186,6.873033047,2.989118814,0.684680879,-1.886701465,-3.787412405,1.015491009
-6.903017044,-4.28164053,-0.006007615,-1.844056249,0.378315836,7.987621784,-6.902415752,7.487462044,-5.573103428,-3.943237066,8.943863869,-6.426821232,-1.232929349,-2.728451729,-11.26057816,-3.14591074
-9.655406952,-3.759621382,-7.934771061,-10.72694492,-5.688173294,3.171752453,-1.536076784,10.33257103,-6.806031227,-6.475877762,11.75007629,-10.43161201,2.256485701,3.899309874,-8.114327431,-4.287169456
-4.660006046,-10.82170391,-2.384980679,-1.232273698,3.889639378,4.545456886,-3.093144178,11.75273228,-2.893315315,3.638293743,12.24235725,-11.19344616,3.478595495,0.637920737,-11.74393845,-12.60011387
-3.337512016,-6.239202976,-2.821590185,-6.771788597,-5.22853756,-1.983145118,-10.04737949,1.741921902,-3.100967407,2.532566309,7.853701115,-2.125043869,1.828559041,8.621647835,-0.337759763,-1.104348898
-16.07189178,-2.97054863,-7.885550499,-6.319095612,2.942819834,5.95321846,-9.330025673,8.590457916,-8.051208496,4.398275852,10.67715073,-9.908381462,11.37300873,-0.309474558,-11.11557293,-12.73537064
2.352752924,-17.4256134,-5.329028606,-4.485469341,12.18887711,-7.326209545,-22.94244194,-5.250621796,-0.702387273,9.656599998,-5.135273457,0.208255231,-10.44258976,-1.027128816,-5.133284569,-14.62100887
-17.69018173,9.3158741,1.425082922,-1.417115092,40.68864059,-47.74008179,-37.45965958,-43.51382446,13.38143444,47.85906219,-6.912517548,10.84240532,7.198833466,26.14662933,33.84598923,-6.991580486
7.255654335,1.421916962,-36.49936676,-8.19487381,22.58401871,-22.02952766,-2.496352434,-2.08995676,16.448843,10.07427788,18.33527565,-4.220534801,12.91031361,20.62494659,47.20609283,-18.48435593
20.61369896,-31.11134338,-6.441331863,-15.88877106,12.15953922,3.489835262,-20.84891129,-14.85940266,28.27258873,2.398279667,15.0763731,28.62618828,-33.86201096,34.11722183,20.48245239,-16.19921684
-35.92903137,-48.61899567,-46.87467194,21.38277054,-20.58721161,24.63627625,29.25382042,40.22056961,14.41954517,-21.15014648,31.80407143,-45.91212463,13.83951283,28.08478928,25.16850662,18.99380302
-24.83543396,-9.771216393,6.717550278,17.58734703,-2.411598206,8.900624275,4.937330723,14.22751999,15.83933258,9.390068054,14.43877125,-24.97072411,6.607326984,15.51278877,14.49687481,12.60227489
-12.92421913,-38.22384644,14.93460369,55.8725853,32.99513245,40.47766876,-37.00317764,-9.702757835,53.13398361,34.44873428,8.576621056,13.52406693,-37.7848053,-11.92786407,-11.69647884,-14.78650475
-27.68113327,-20.36375809,-25.21711922,9.933868408,-20.95674133,34.5680275,5.915789127,28.38071823,29.43309593,38.35670471,34.58520508,-9.610704422,-13.15223408,37.51977539,16.6752739,1.797825813
10.32582951,-6.096342564,-25.24399567,-24.47993279,-19.98479843,34.36939621,22.01208687,16.97730827,-0.548141003,-17.23148537,12.72663689,1.80051589,7.653252125,2.300127745,-37.37263107,-32.27458954
0.2286596,-15.25298595,-19.42819023,-18.58891869,-0.427723885,5.939698219,-6.9445858,1.908331513,10.26944447,-2.338052988,10.89356613,-7.199293137,-11.06027317,17.56578445,9.657099724,-16.8395977
1.170369267,0.419696748,14.62936306,-5.007973194,-10.05913353,0.510439336,5.756669044,2.571826458,-4.640452862,-11.68636703,-5.594418049,1.267986894,1.547246814,4.527803421,-6.384024143,17.11218643
-1.768662095,1.112800956,10.18977547,0.27445063,19.44173241,-1.106322646,-13.46487808,-6.152516842,-16.43536377,-2.05465579,3.196239233,8.56291008,1.355678678,5.797662735,-5.415120125,-1.342779517
-16.07011604,-3.636259317,4.541308403,8.446592331,-1.305299044,-13.63276291,-16.37934685,3.855489016,-14.99791241,7.301523685,7.392886639,-12.5144043,-0.409223884,5.397102833,-4.42171669,10.50868797
-8.629891396,2.086470127,-2.839735508,3.281611443,5.576911926,-24.15062141,-10.91648197,-1.192677021,-20.81950951,7.628015041,-4.598576069,-10.87843227,0.855169892,-6.326529026,7.512858868,1.535117984
-16.64846039,10.52707005,-3.467125416,-1.825122952,-0.536981225,-13.43090439,-5.628912449,-4.725127697,-6.933206558,7.510818481,0.930371881,-16.59855461,1.431926966,12.06528473,-0.192264333,5.823014736
-20.86154175,8.103528976,-10.04281235,-2.707267284,1.844736814,-11.74396706,6.979320526,5.96499157,-10.62366104,14.71036053,1.424751282,-20.47022629,3.24347496,4.860359192,6.96224165,6.709093571
-4.363565445,0.12144272,-13.05270863,11.84937572,3.312333345,-13.02032661,-7.151602745,-0.94560796,-4.477928638,7.838010311,1.043502212,-7.235270023,0.971512258,-2.924764872,6.011716366,-0.917874098
-9.420740128,14.82036781,-20.20384789,-19.17671967,-3.296504736,-8.687911034,8.692174911,2.209651232,-11.77133083,12.43414402,-0.908839226,-11.76018047,5.836202621,13.05243397,5.135652065,4.781677723
-3.746742964,3.522223234,-25.60354614,6.001304626,0.02095915,-18.8717556,-10.82490158,-10.62197495,12.59167767,27.21117783,-3.067472935,-14.2309103,-12.20191097,-7.416457176,7.712186813,-6.662700176
-17.30992508,-16.58492088,-22.38144302,5.341018677,-14.16231823,-10.32993412,-7.375599861,-4.636734486,9.017536163,10.4796114,2.945576191,-22.49775696,-16.87882233,-4.026211739,2.130642653,-3.475585938
-3.088959455,-2.346565008,-22.25769615,-6.817099094,-7.660424232,-4.805042267,16.31323433,9.933639526,4.05479002,-7.706930161,0.589123905,-15.03448677,2.917055845,9.508381844,17.57668877,-0.605419338
0.855032265,6.135172367,-5.624754429,-6.777272701,-6.028209209,-1.715975046,18.27425766,7.038611412,2.203833103,-7.136029243,2.138030529,-9.589928627,6.375319004,11.03521538,9.67383194,7.540188789
0.224319518,3.433778048,-20.55997658,-0.902959764,4.267934799,3.705652475,6.414804935,9.459697723,1.701256752,-2.451980829,-0.931704998,-11.06070232,12.58151245,-1.487926245,4.949448586,-8.657699585
-3.216919422,-2.311014175,-10.99371433,5.076155186,-1.276743054,3.745598316,2.566381693,13.32155895,-0.095477909,-6.58668375,5.791039467,-7.865904808,5.024054527,3.261140585,9.360696793,-2.638185978
1.14916575,-3.345450878,6.256987572,0.982791662,-4.393803596,4.876329899,0.932359636,4.254652023,-0.161297113,-5.558583736,1.493721962,2.525402069,1.399101853,-3.712322235,-13.74886417,2.023523092
-6.833812714,-10.67549419,-9.617516518,2.287851572,-10.66897392,9.529017448,-0.583854795,18.18572044,-7.075472355,-2.154774666,1.758191586,-15.41326618,6.984482765,-20.6661129,-12.08377171,-4.342381954
-14.10125256,-3.072375536,8.607485771,19.72586632,-9.689674377,8.636222839,-12.25125694,10.0177393,-0.298452079,0.914221168,-0.01732458,-10.85658264,-3.471547365,-23.99700165,-14.99238205,3.218394279
-18.79252052,-15.87413597,-2.453779697,5.693037987,-17.67715454,15.12300301,-8.995441437,16.93868065,-1.651141167,-6.56573391,9.843438148,-20.75480461,1.636747956,-15.18828201,-20.53819466,-5.536524773
7.208736897,-8.664780617,-3.294260979,1.64104557,-3.78311038,-5.365777016,-17.07096481,-11.4625473,15.19837666,10.0028162,-0.836580992,4.366837978,-20.51505852,-9.235507965,-7.61995697,1.075400233
-6.505777359,-5.444684029,6.275537014,-7.998655319,32.58345795,-44.44594955,-40.74688721,-43.01568222,-4.147237778,22.63995361,-18.96912766,8.240440369,-27.18721771,6.581114769,11.95555592,-5.809837341
54.1806488,-12.61115837,-29.74388504,-30.60292244,47.49310303,-9.832223892,-22.20426369,-39.1173439,24.42308235,21.35910988,-2.095445633,53.97913742,-2.876657963,32.92374802,47.90250778,-37.62381744
17.9740963,-14.89858341,-54.62656403,-68.95417786,28.01112175,-46.92933273,-50.08127213,-37.44108963,-9.48432827,7.212952137,-6.116337299,0.4505409,-45.41760635,53.58428574,32.05570221,-40.00690842
-31.61867905,27.22585678,-56.48031616,45.2282753,-25.43970108,-33.56694031,36.93688583,-23.49388504,47.3372345,29.92970657,-10.85381985,-44.30962372,36.05064392,-11.85182667,-11.6297493,23.2908287
-18.5682888,3.831294537,10.71361637,9.345475197,-6.542369366,-2.859087229,2.660708189,11.3073473,3.091726542,6.899949074,6.940597534,-13.34482193,14.69911766,12.06606483,16.28555298,8.751942635
-17.60924911,-5.970846653,3.712959051,11.51704884,-16.2084465,15.85302353,17.51351547,14.60107994,12.36808395,18.00034714,21.26203156,-7.210804462,14.89766979,49.50095367,-2.950283766,16.23485565
-26.50057793,-19.2589283,-9.579040527,18.01873589,5.924971581,14.46757698,-0.915652156,18.46338272,13.9225378,22.62464714,18.97184372,-15.61048317,3.083506823,22.56308556,4.473001003,-3.299981356
-21.16578484,-6.986516476,-27.65032005,-11.77855587,-9.163574219,-5.230797291,-11.57760239,15.54597759,-4.687781334,4.760252476,16.08099937,-16.68432426,-14.09925842,10.15279007,-3.675870657,-8.091415405
-2.123257399,-8.973823547,-11.27854443,7.343638897,-5.657562733,-0.193724364,-6.228476048,7.947467327,9.188580513,-12.82836437,2.905736685,-8.853667259,-6.394434452,-8.211964607,14.38542652,-4.403479099
-9.226546288,0.383544147,-3.952624798,1.871023417,-10.51703739,-19.61349106,-6.775753498,3.536557436,-4.146483898,-1.863775969,-0.955456376,-15.84243584,-8.127925873,0.875390768,2.220576763,0.380240649
-7.192619801,13.71671104,-12.91017437,6.140939236,5.702947617,-25.3526268,-0.927402973,-6.75237608,2.760579824,22.78156471,-15.34951973,-15.02158451,7.965268135,-10.45949078,9.497071266,6.576789379
-15.10112476,11.25387383,-21.47010231,-1.222694397,-8.853159904,-17.56865501,9.493804932,-4.728469849,1.577145696,28.5798378,1.780553222,-16.48483849,1.946356297,2.75348711,-0.347815663,11.52068138
-13.26296902,9.622657776,1.333977461,7.987833977,-1.469201207,-8.330919266,10.72750282,3.562977076,5.373544693,12.75740242,9.54558754,-13.22623158,5.844260693,5.287236214,2.350429296,4.558589458
-9.597943306,4.746164799,-4.202080727,1.034579635,2.753911495,-3.718822956,5.958755493,-1.524404764,-11.52603245,9.808718681,-8.182403564,-4.535876274,1.241145492,-7.861124992,-8.343218803,1.608888626
8.612874985,6.299838066,-10.0718832,-7.928790569,3.259814501,-1.212588191,11.56731892,-8.365172386,-2.104995489,15.92903233,-5.228477955,2.862178326,6.781664371,-3.857629776,4.79437542,-9.297922134
-13.14423466,8.207607269,-6.829995632,-2.633390903,6.823215961,-6.344482899,5.938867569,-6.156741619,-4.503232956,19.10319328,-3.060811281,-0.842038035,12.55411816,1.113692641,-0.380537689,5.501601696
11.33521652,16.73571587,-14.8480835,-11.71833229,-1.23639822,-3.342368126,9.370487213,-14.60132885,-2.093206882,14.96448803,-5.523157597,9.981009483,7.023481846,4.016428471,-12.10523319,-0.777119577
8.796661377,9.424303055,-11.3071394,-10.04206085,1.279181719,-17.36731148,-2.421788692,-17.06039238,-11.53512287,15.24338531,-16.21567535,2.497570992,-1.709938526,-12.19132519,-1.136955857,-0.976421297
5.865272999,-7.332073689,-21.48720169,-1.823585629,-13.63798046,-10.74212837,4.208914757,-2.134141684,12.77856445,-3.650084972,-1.523209691,-12.44127941,-11.32694721,-16.91805267,8.084737778,-3.995744944
-0.791075468,1.677621722,-14.08546352,-8.508820534,-5.696828842,-11.11250591,13.89987946,2.883340359,3.478574753,-2.877293825,6.726680756,-12.58851624,0.440466702,8.39936924,17.74979591,-7.986198425
-3.52409482,-1.68706727,-12.83380318,-10.88011551,-5.480491638,2.893617392,16.6469326,8.162778854,-4.34532547,0.995144129,5.246275902,-11.56071472,2.808645725,0.667411327,-0.721145689,-0.603429079
-6.422183037,-1.48454845,-8.444125175,6.084071636,-8.672506332,-1.890190482,7.587304115,4.809137821,-3.709401608,0.842312217,4.375923157,-7.969594002,-0.103329718,-1.807595015,-2.044354916,3.100021124
-4.570960999,-4.512763977,-15.19353104,1.54103291,-8.911366463,0.70251286,5.953514099,15.04925823,1.274153829,1.38579309,0.633363426,-8.123884201,4.272804737,-3.930146694,0.854555845,-1.885984421
-6.290708065,-3.749531031,2.589108467,-2.868845701,0.082815096,-2.710887909,-2.849506378,5.950560093,-13.47600842,-16.34166718,1.784540296,-9.797201157,9.172236443,-8.82664299,-3.84304142,-0.46593985
-0.682825208,-5.001766682,1.353852153,1.805980682,-6.211495876,-3.021229744,-5.267268658,0.615700603,-10.15396023,-4.896938324,-4.543965816,-8.388105392,3.170097351,-6.234762192,-12.98048306,-3.918566704
-18.14767456,12.4434557,11.26100826,1.946903229,-10.65599442,-11.31523323,4.07075882,11.09538174,-20.59827995,-13.32152653,-2.610111237,-13.71166229,5.351211548,-5.040378571,-20.56741905,17.12472534
-20.74101448,-4.178703308,9.216531754,12.93671417,-20.46404457,0.324879289,4.836761475,15.88887119,-16.6655159,-11.90787029,7.707537651,-30.63064384,-3.166522026,-11.80717468,-29.38449478,20.80610847
-39.52867889,4.830115795,1.162025452,21.83692741,-40.51187515,-22.94624901,8.857041359,9.10009861,-33.57157516,-2.694280386,-16.7051754,-47.29529953,-4.572293758,-31.20220757,-37.73425293,27.40611839
-53.35712814,1.845325828,45.99065399,14.23651505,-54.78034592,12.3519001,-0.548660398,11.91929626,-55.31978226,-17.35374641,17.68673134,-33.83109283,-15.90067863,-23.42485237,-90.90570068,32.75424576
26.15113258,-18.13281441,17.61562157,-12.40955544,-2.975430489,32.8441124,-5.818187237,1.867850542,7.215346813,-11.18003082,25.75431824,36.04220963,-16.85064888,24.69024658,-20.29922676,-9.221686363
38.54297638,-40.66553879,-34.2718544,-49.90071869,55.38582993,6.090605259,-45.26800919,-6.735267162,26.16435051,-13.87979889,44.11103439,27.90422058,-24.22922134,67.99273682,68.4688797,-65.20970917
-28.64030457,8.337668419,-43.12773514,47.76513672,-19.80858421,7.767478943,30.39895821,7.504120827,51.85365295,11.09819221,9.240285873,-36.62626266,20.53122711,18.13783073,6.791778564,16.21879387
13.96311665,2.656685591,-12.23052406,8.557533264,-20.61066437,-10.09543228,21.23181152,-7.788294792,15.9672575,-9.017274857,-11.03305531,-3.001782656,-9.689491272,-0.063786641,11.76799965,12.6262846
-2.410269022,7.283199787,18.56511688,-2.285107613,-1.948868752,-9.711182594,10.92071724,-9.196072578,-13.14527512,24.55585098,-4.941146851,-0.533203185,16.88627052,26.40542603,-13.69510937,15.7733736
-26.44987869,-14.40964508,-4.270380497,16.4424572,9.565541267,16.19629669,-10.81362534,20.87177086,14.3037796,14.93262482,25.3384285,-16.64866066,-5.478974342,28.09006691,13.99467468,-4.390500069
-12.84454346,-12.51668453,-13.94227314,3.981953859,7.380177021,7.430927277,-26.33446884,2.586438417,10.55126286,14.3598671,17.13629723,-9.398150444,-13.28240204,4.243947506,8.627924919,-22.11813545
-28.05611038,9.610559464,-23.66038132,22.20002747,11.46748638,-24.64756012,-4.631552219,4.353427887,-1.311988115,26.40583038,-4.808700562,-24.25479507,15.66682529,-13.55091381,34.410923,9.76630497
-6.748188496,13.30137825,-25.01689529,-1.826503396,-1.978359342,-21.63700676,1.283613563,-3.309175968,4.583976269,23.4419384,-14.0586071,-10.97729778,3.163782597,2.560995817,10.36261272,0.961422026
-16.54483032,7.837473392,-7.307478905,8.677404404,-14.55913639,-5.393414021,20.74371719,-2.553097486,10.12978172,25.43601608,1.660214782,-16.97801208,8.879412651,-4.302264214,-11.00621986,12.00295448
-13.67393303,14.07068253,-12.5705452,3.418428421,11.0270443,-19.2072525,-6.284535885,-9.358416557,-6.304738998,15.71907711,0.542930722,-8.305038452,9.012354851,-1.644780397,0.946266174,-4.491216183
0.275053203,3.93855834,-3.095365524,-4.601171494,0.653063416,-2.036390543,8.397003174,-2.320984602,-7.090981007,4.937036037,-7.28282547,-3.692341328,7.026665688,-2.176216602,0.51412195,4.285645008
0.642358124,5.057082176,-1.038284302,-4.824715614,-1.434146285,-4.962251663,8.53050518,-3.528784513,-4.737825871,7.282220364,-4.199630737,-1.958726645,1.869837403,-0.753149748,0.293640524,2.46406579
-8.064728737,12.5757494,9.382691383,1.885199904,12.24468613,-1.358559489,2.834928751,-3.610391617,-0.572664082,13.68327141,3.055617571,4.047478199,19.439394,1.655793786,-6.245009422,-3.684692383
-3.3387115,4.806503296,3.609323263,-8.533900261,8.396243095,-0.336371899,-4.166884422,-0.650448859,-14.94684029,2.266631603,3.738328457,6.895633698,7.355582237,10.86660767,-0.329154819,2.026540279
5.582826614,13.5449934,-4.908790112,-14.99587822,8.557529449,-7.250786781,-1.811659575,-15.81540966,-7.769073009,7.85826683,-16.82068062,9.552928925,-4.554145813,4.317025185,0.997975171,-1.663356304
14.25538254,3.386669159,-7.118484974,-16.60694313,-2.978540659,-10.97052574,-1.935697913,-16.46799278,-10.12168789,-12.91510201,-22.28084373,7.435384274,-11.68433857,-11.82303619,-0.026360581,-8.140989304
4.006708622,3.737736464,-5.71053648,-7.236923695,-7.518491268,4.520926952,9.487510681,2.505661249,1.773990154,-8.238201141,-4.074600697,-6.673342705,2.503208876,-6.026973248,11.21127892,-5.002361298
-2.099838734,11.14113331,-4.015435696,-11.31561089,-15.20433712,-14.13858032,7.842398167,6.340616703,-5.818731785,-4.983924389,-2.621707201,-8.388473511,-3.995634317,3.024305344,5.695155144,7.062081814
-4.920880795,5.809112072,-13.41404724,-7.312932968,-12.94727516,-4.159625053,8.811830521,9.807384491,-3.80990696,-10.40742779,2.29020977,-8.858455658,4.944798946,-3.881216288,-5.574235916,1.383224845
4.193385601,4.794985294,-4.032829762,-3.221108198,-3.161600828,4.037341595,12.04265404,4.152540207,3.383115768,-3.777904987,-6.135213375,-3.512304783,4.860592842,-4.070773602,5.399096489,-2.118094444
4.883056641,3.56981492,-3.057982445,-10.34579086,-0.448929608,-2.959697008,2.031998634,1.408586979,-5.961798191,1.228563786,-5.851464272,-3.245673895,9.028128624,-1.281990528,-5.518948078,-10.59567165
4.60541153,5.173391819,1.173271179,-2.630871296,1.851368904,-7.360318184,-1.224847436,-8.961137772,-15.02746677,2.041805506,-9.834015846,-1.525737762,4.551781654,-8.656480789,-0.158226192,-5.020106792
-2.154106617,2.584599733,-3.577331305,-4.140899658,-2.080059767,-14.13493156,0.700137377,2.217200994,-11.98889256,-1.611955762,1.045726776,-11.31015873,0.067533746,13.57489491,7.59252882,4.918366909
0.400167912,7.906319618,13.49938488,1.955745697,-2.698879719,-1.715689063,12.23360825,7.449939728,-4.682038307,0.366525948,-2.729083538,-11.16739368,7.865170479,3.663947344,4.612722874,12.95133495
-13.33703518,8.214853287,12.97768116,5.953187466,7.829510689,-16.49898338,-9.732976913,0.579775751,-4.062645912,1.908690572,0.651732624,-9.710547447,-4.784259796,8.832089424,-9.423085213,17.42777824
-6.656627655,5.211225033,16.39823151,8.314608574,-25.35923767,-0.041101761,-4.558932304,-17.77769661,-8.713118553,6.90783453,-3.544108391,2.35883975,-18.94693375,-10.72932434,-38.41172409,19.92007828
-23.11098862,-15.17165375,36.73867035,14.87697411,-29.51986313,34.59860992,-7.578297615,21.83104897,-9.231497765,-13.6966238,33.17123413,-8.594114304,-20.37378883,0.664914429,-63.42767715,20.7390461
-1.662549138,-9.658831596,33.05735779,-6.007483006,-17.39050865,36.69732666,-1.585252523,33.50826645,-16.52130318,-23.01392937,27.37212753,7.679046631,1.54428184,10.44735718,-49.85372162,-8.084158897
44.04253006,-29.06969452,33.93335724,-50.44485092,39.23509979,36.94936371,-11.17978859,33.6146698,-9.127714157,-44.64741516,41.25701141,42.91046143,-12.6857481,47.14242935,16.23406601,-38.92886734
40.5013504,-27.15578842,44.16352081,-26.84008789,5.064750671,38.62872314,-25.45184135,24.96416092,-10.58760452,-41.05768204,13.00776577,40.87921906,-40.71170425,-0.980205178,-0.272754997,-20.64125061
27.82880592,15.86962605,17.50450325,-27.61309433,34.73909378,-28.82320595,-26.63152504,-26.99406433,32.47423935,36.1033783,-31.25133324,28.36196136,-30.20995712,30.98677635,33.19848633,2.118587255
0.650565982,1.603354096,-24.43593216,-17.07725716,-0.033106785,-11.95458984,16.24884796,-4.551033497,-0.001011623,36.47859192,-4.451742172,-0.757312596,16.14426422,10.74995613,10.28457832,-13.66777229
-28.63624763,-19.08751106,-17.07322311,19.46829796,-13.42261696,18.58665657,-1.538691401,28.70238686,32.0410347,28.30275345,26.10448074,-21.72299576,-15.69696808,28.42195129,25.41610527,-0.660608649
3.207556486,6.410930157,-18.18373871,-15.12514114,-11.97597027,-6.800535202,19.43645096,7.493257999,2.963869572,-10.66562939,2.639587641,-7.399636745,-1.386963606,11.01300144,19.28842163,-0.411041468
-0.013248519,20.78380203,-3.901756525,-11.65150642,8.559019089,-7.138411522,22.81293106,9.116660118,-6.035838604,11.23989296,1.277967215,-5.661741257,33.39654922,12.9051733,23.81446266,7.84060812
-15.38788986,9.727537155,-4.017986774,15.20856476,-10.49180984,-11.72689056,10.00874615,-3.669639826,6.004281521,31.57468033,-0.533356726,-13.54336834,7.617880821,7.0023036,5.734791756,19.17834091
-1.630567908,9.60283947,1.494392514,5.821547985,1.984322548,-9.029699326,4.743309975,-0.033523276,-5.000035763,2.418054342,-10.45811367,-7.318760395,3.356304407,-3.039806604,2.847813606,9.52335453
-0.975898564,3.44381094,16.47498703,10.06509972,19.45448494,11.76928425,4.104370594,0.280943364,-9.076956749,7.857547283,2.890102148,8.607479095,15.76251888,-1.748456836,-7.35861063,-2.199046373
5.081367016,1.150485277,2.677447319,2.200015068,0.467468113,4.922040939,4.467349529,4.174342155,3.271543264,8.307609558,-0.997490406,8.192836761,7.229286194,2.13263154,0.971234083,1.974037528
-0.91999656,11.06589413,-2.800555706,4.175291538,13.14999294,-1.644082785,7.996109486,0.738880038,-0.429776967,11.01562405,-1.117420912,5.320812225,5.508488178,-2.967430592,0.423957139,-3.37030673
-4.903803349,5.742126465,5.971294403,-2.488685608,6.995172024,0.025302853,-6.073661327,-10.15138626,-2.366406202,8.06820488,-1.446554899,6.341192722,4.1378088,2.347231627,1.57130456,-4.938382626
-8.465445518,6.466356277,9.948477745,-9.09989357,2.804654598,-0.091249257,5.03063345,-11.37682152,-17.47627449,7.10899353,-4.862075329,5.954023361,2.075553894,-0.507569015,-13.57378101,3.343457699
9.595561028,9.742541313,-6.757990837,-7.239525795,-5.06347847,-5.250704765,-0.90397948,-13.16264534,-14.73499775,1.311906099,-12.85632229,10.92752457,0.204425424,-3.361973763,-6.681123734,-5.390431881
2.355421543,4.761656284,-4.692934513,-6.580032825,-4.57463789,-4.363080978,-3.846357107,-6.716858864,-6.517679691,-12.00946808,-6.999908924,-4.112205505,-4.005087852,-4.521869659,2.604957819,0.165020168
10.99568558,2.97301054,-9.380042076,-3.797390223,-3.607222319,-6.742526531,8.059240341,1.931698918,1.533422828,-14.78878307,-5.99237299,-1.495245576,-11.07583332,6.97233963,11.21519566,-0.493497998
1.75929296,8.063205719,-8.040380478,-6.201658726,-8.943957329,-6.142941952,8.935716629,-0.366226435,-4.393453598,-1.289767861,-11.50819874,-2.091465473,-1.699068189,-2.857620478,4.390647888,2.189642429
0.459803015,10.00370598,-8.176405907,-4.352469921,-4.386504173,0.549768507,11.65933895,5.549348831,-2.697274208,-7.684092999,-1.259127855,-4.217991352,0.811592758,-0.126270264,2.083357573,8.510581017
-2.260567188,7.422438145,-4.497937679,-7.337001801,-2.31157279,-1.732322931,8.510165215,5.66808939,-9.76581192,-3.413922548,5.044635773,-8.735567093,17.07483482,7.200012207,-0.346115947,-4.616121769
-5.63036108,-2.031481028,-0.093752936,1.349570751,5.419530392,7.281115055,0.505281806,12.35546398,-4.83480835,-1.85343647,9.053928375,2.233978033,6.105483532,2.277133226,-4.732967854,-5.856752872
-9.772698402,7.114028931,9.244641304,-0.077616684,-9.769109726,8.034697533,14.35124207,15.72027969,-2.395568848,0.525501311,12.75278664,-11.80942154,4.881311417,13.79484653,2.624724865,8.085385323
-4.595458031,-2.250306845,7.405919552,9.056222916,7.935471535,2.254782677,4.760535717,3.399913788,5.575470924,1.230805159,-4.933865547,0.679716468,12.09848881,-0.641511559,11.56666183,3.735225439
2.649422884,6.092653751,-1.09890759,9.411153793,4.551165104,-1.904760838,-0.86326009,0.818800032,11.12599468,0.874792278,-5.231278896,-5.761817455,7.127912521,-14.28220654,-1.990971684,7.294983864
8.477314949,11.89020443,8.62638855,5.400062084,4.225338459,-2.482622623,5.267123222,1.806837678,12.15031338,8.65776825,-3.349868059,4.200973988,9.369654655,6.512992382,11.92328644,6.920597553
1.925546408,-10.21697521,4.550320625,10.73531246,6.592126369,11.61241341,0.606131613,-1.705867529,33.87972641,16.29485703,21.32510185,6.418324471,-5.691761494,11.33876801,-3.439384937,-4.624361515
2.160661459,-2.882436752,5.490167141,3.254012108,12.80352592,2.622565269,-5.402674198,-22.96660805,30.89767075,30.7703743,7.143978596,23.55651093,-12.47042847,10.92354965,-6.582112312,3.607205391
-18.41174507,7.80354929,25.21767235,-1.120308638,-30.48928642,3.331477642,9.196595192,13.73017883,-50.69744873,-11.64399433,6.994711399,-13.64743519,7.158222675,-12.53673553,-40.92215347,8.44492054
57.42843246,-39.45901108,56.62914276,-33.15877533,-6.784403324,43.48036194,-30.39696312,26.44379234,-3.312193871,-56.02699661,19.62137794,46.40846252,-44.5514946,-6.067740917,-12.69956779,-30.5826149
35.06015396,-33.05892181,54.71383667,-9.324982643,17.95628166,38.01313782,-35.06010437,36.68219376,-9.792883873,-42.50534439,25.73091316,41.74790955,-39.85628128,2.771612883,12.24992275,-22.38262558
21.61026764,2.731226444,14.34057522,-23.66055107,34.48971558,-26.5152359,-35.80731583,-31.27758408,36.63072968,33.16864395,-5.895738125,28.6658535,-25.66928291,28.0140667,35.16665268,4.432161331
18.47727776,-5.558247566,-25.97245979,-25.89475822,12.81035614,-22.06542969,27.99886131,13.25863266,12.33690453,23.92901802,6.914720058,-16.46391678,34.68860626,-23.75096512,13.30363178,-25.64255714
29.23164749,25.81402206,-26.08727646,-52.14828873,-46.59606934,-0.981531203,65.44245148,-29.41728973,30.83200836,51.53539276,1.594944,44.34602737,-23.13624573,35.46495819,-11.24114609,7.346168995
-2.435749769,2.973762989,1.983198285,-0.173122346,-16.16567802,7.094305992,27.96851921,24.76317978,-8.375226974,-20.76771736,10.02673817,-8.049807549,10.04349136,11.0828228,11.5834856,11.76579475
11.13912773,2.942409754,20.63640594,-3.317452669,29.4944706,20.48735428,-4.365500927,11.14650726,-11.17305279,-4.775528431,0.495218605,10.36227417,21.85839462,-0.885909438,-2.285669327,-8.485640526
7.864792824,3.061656475,20.0107708,9.359488487,9.650014877,21.7458477,0.870102167,7.45253706,-0.642980993,-11.1944561,5.681817055,8.470677376,10.99209309,-2.55993247,-12.4161129,-3.336432219
11.25128937,10.87771988,4.479688644,-12.90539837,6.647467613,8.262770653,4.709908485,-0.00248882,-12.02634239,-9.266320229,0.443324566,3.00174284,2.216167927,2.582943439,0.208937317,-0.487582505
-10.17371273,12.43106651,10.77036762,13.76146221,10.78209209,8.366950035,0.187176898,-4.670036793,-12.10949135,7.982316971,0.656454206,6.917571068,9.479977608,-5.213243008,-12.141675,9.560466766
2.538758993,7.370103359,13.70981407,2.980704308,7.962500572,-1.750362277,7.233351707,-2.527933836,-10.87501907,6.994005203,-7.40133667,7.55791378,8.707669258,-6.797454834,-3.146119595,1.611760974
-3.779014826,6.289120674,11.96144199,-5.60077095,6.3893466,-0.115334891,-5.825416565,-7.218437672,-7.58618021,1.427016377,-6.331630707,15.21993732,6.989155769,2.865432978,-4.457098007,4.172034264
-10.71565342,3.009400129,3.482045889,5.75666523,4.89896822,-0.116003677,-4.382256508,-2.746942759,-6.077029228,3.985881805,-2.108288288,3.995055914,15.45409775,2.413707495,-2.465482235,5.331203461
7.776432991,3.978904486,1.729136109,-8.550261497,-2.604733467,-4.274227619,-0.183741167,-0.384772271,-4.171736717,2.831333876,-7.53943491,5.520841599,12.21035862,-0.687220991,-8.216693878,0.337151021
9.549146652,7.915421009,-1.859228492,-2.4621737,-2.046157837,-10.73044586,3.124121904,-11.76727486,-1.57164681,5.507273674,-12.97881508,2.545144796,-3.557121038,-0.993833363,-4.476043701,-3.753530741
3.791152716,-1.633876443,-1.677896738,-8.172375679,-10.28011894,-4.419870853,-2.051190615,-3.199387312,2.697427273,-9.08962822,-8.151912689,2.934838295,-11.55294418,-0.357198447,-0.360030562,9.935853958
9.480046272,11.17992783,-11.47368717,-9.438235283,-19.35087395,-2.5797894,12.78465366,-2.125309467,0.631141484,-12.14370823,-9.05569458,0.180663347,-18.25795364,2.507408857,-1.922908545,12.35363865
1.968892694,2.536326408,-6.429514408,-8.361406326,-9.037513733,0.634982705,8.10637188,12.86699867,-9.073039055,-12.38285732,3.730308294,-2.191600323,4.492706299,3.551906347,-1.556507349,0.395156264
17.46465492,10.03043747,-4.117111206,-12.42716217,-2.236245155,-9.272612572,15.99710846,-0.420061648,-2.318599463,-4.81024456,-10.25963879,4.666956902,5.514428139,-3.509758472,4.790659428,3.673762798
-14.81764984,8.131763458,-1.194154739,3.435198069,2.651270866,7.138361454,8.599116325,8.169610977,-3.624941111,-0.960617423,14.37472248,-4.66331625,10.50846481,7.571698666,-1.386376977,-2.6377244
-5.879033566,-3.283981085,-2.232564926,4.990392208,12.11045361,-4.564360142,-3.017556667,0.772444487,0.594709158,9.303617477,1.954113364,-3.627151489,0.56711787,11.3008728,1.091551661,0.05702877
7.431063175,-2.135220289,1.248225689,-5.797821999,-2.84973526,-2.853819847,3.683225393,0.577602327,-0.344661236,-3.466704369,1.281908989,2.133663177,6.934477329,3.06354022,-1.063302159,2.074664354
-4.500277519,-6.103123188,-13.04349613,4.170786381,-3.166612864,12.03186607,6.298274517,1.480706692,7.374554157,11.25089645,1.151875257,-0.160645127,8.566884995,-6.726236343,-3.059615135,-7.510975361
1.653449297,-2.247707367,-3.361865759,2.304921389,-3.042587757,10.06636333,1.621572852,-4.637020588,14.9819622,7.624350071,6.492990017,7.605933666,-3.797210217,-1.188440681,2.786566257,0.833300948
-13.79458618,6.223060131,-8.548456192,-1.922504902,-9.399653435,9.434064865,22.52797127,12.95226097,9.630989075,3.565722227,14.32959461,-17.68663025,21.48082542,-1.5107373,-6.154879093,-7.588537216
3.818631411,2.801753044,-12.03116608,1.35286355,6.838349819,14.2188282,14.5141964,5.304620266,26.64536095,23.62638474,13.79813766,-0.717435718,5.946297169,4.725822449,-4.073911667,-12.48814297
21.67884827,-21.31534386,1.588805914,8.021115303,15.83722687,12.51757717,-30.39433289,-20.08251572,48.81474304,5.405893803,15.71174335,42.18940735,-36.81287766,-3.315097094,5.326211929,-21.25096321
0.9480896,4.309772015,33.70478058,-5.255170345,-8.460146904,-2.936794043,-11.12401962,-17.33527756,-18.66071701,-4.685019493,-10.90849018,17.87038231,-6.965114594,-8.489491463,-35.89131165,10.17323971
36.52882004,-10.01575184,24.3540554,-62.89722824,10.23834038,32.69273376,4.284020424,49.65602112,-31.8822422,-42.74726105,18.8168354,32.58464432,8.752016068,22.70290756,6.091979504,-27.14812469
40.08730698,-27.21397591,46.39967346,-10.44592285,-16.43484497,37.51306534,-20.91374397,34.2997551,24.96162605,-41.67950058,25.11114502,38.74625397,-35.89372253,11.08051205,-27.42974854,-11.43788242
-31.25427246,-21.41764259,-17.60882759,22.22692299,-22.69210625,28.41565895,26.27991867,25.11675072,26.38149261,-18.99202919,27.76986313,-26.21827126,29.88771248,25.01307297,-5.982656002,17.40356064
38.55617905,-32.97301865,-28.35127068,-34.52729797,3.999744415,-6.935413837,30.76237488,3.732749939,27.26912689,24.07687569,0.233327642,-8.305225372,4.422276497,-39.08984756,12.30544853,-30.59803963
33.1871376,-8.316830635,-26.35282516,-29.32013893,-52.29788971,14.80334949,20.83753014,-3.087007761,24.42318726,-6.972525597,-11.7044239,2.963002682,-8.964531898,-4.045724869,7.35012722,-27.95024109
29.44743347,-15.44536686,14.03883743,-19.92162132,8.686411858,10.64666367,-18.4256134,-9.622291565,-6.681426048,-28.81303024,-5.208206654,30.67076111,-19.95696449,-2.576998472,-17.97992134,0.602380872
10.39682579,-21.57792282,-2.380483389,5.346509457,10.63526249,22.81767273,-11.96166515,8.867640495,2.0003407,-15.03965569,1.851498961,6.748421669,11.00232506,-25.08563423,0.635343909,-21.28645706
10.77595043,1.492598414,14.06045055,3.821023703,3.256084204,12.50075531,-1.298366785,-4.697957516,2.986943007,3.538917303,-13.20417595,7.432864666,8.993857384,-11.31936359,-4.265879631,-3.358001709
8.47170639,4.064352036,14.00721455,4.421494961,1.236526608,6.89111805,-1.498103142,7.616195679,-0.739401698,1.259584785,1.914858222,10.35586071,0.736067533,-1.682013988,-7.099132538,5.61353159
-19.07492828,2.950305223,10.26215649,10.87160969,-2.966367722,9.150733948,5.724955082,15.94844151,-7.310192585,5.581294537,10.46591282,-1.048045754,5.333760738,0.394434333,-18.92855644,8.162573814
-23.41857529,12.66070652,9.710700035,6.652210236,4.233649254,-0.814824879,-1.18588841,8.010361671,-13.96032906,10.20711517,0.181830421,-5.448992252,10.96254826,-2.111052752,-13.18818474,1.677182317
-1.130001068,3.697139978,2.297826052,7.401071072,-4.382547379,4.874121189,5.889687061,2.725808144,0.781029046,-3.628980398,-1.024230123,5.505918503,-8.115699768,0.731560647,-14.36822319,7.036598682
4.944731712,-2.287817955,4.079576492,4.856926918,-2.645833969,-3.925836802,-3.888936758,-1.558601379,-5.174308777,0.371471912,-7.191896915,-2.681247711,-3.603641033,-11.60440636,-10.07998466,-2.282114983
1.275415659,10.40820599,14.96318817,1.690847516,-3.040032387,-2.484145641,0.624504149,-18.42191124,-4.083203316,-1.943142653,-17.79702377,13.79688931,3.244855881,-17.32488632,-12.11995125,0.981264949
-1.416080832,3.347613335,1.325432897,-8.646670341,4.053262234,-3.661724329,1.265335202,4.652526379,-10.71161461,-9.565087318,3.629393339,4.557504654,-5.974862099,5.106812,-4.452392101,-3.043994188
7.885489941,-7.245754242,-2.297586918,-17.7062397,-3.575881004,-2.020812988,7.339188099,5.09634304,1.977400064,-16.68282318,5.421683788,2.923208952,-5.367366791,8.836432457,1.208578229,-0.139271557
11.50203991,9.851804733,-4.877210617,-8.623867989,-11.09036446,-2.695829391,13.1156683,-7.693088531,-3.37045002,-15.01984119,-10.01498699,7.128014088,-7.237164497,4.202208996,-0.859645367,1.950860381
-2.154632807,5.386577606,1.519447923,-4.929964066,4.450325489,-0.654008746,9.898012161,-3.017326355,-8.813866615,3.695311308,10.01838017,-2.487329006,5.698234081,15.02706528,-3.230617285,5.244561672
-1.083024502,2.649775028,11.8461237,-4.08449173,-6.614808083,-1.663492441,9.818059921,-0.415768206,-9.558587074,-14.00460339,-4.212752342,-6.84105587,2.275145769,7.997942924,0.583571494,8.54692173
-3.576477051,-0.202638209,11.38533306,-4.05840683,8.630745888,8.494524956,-9.22373867,14.80536652,-15.57666969,-10.79759598,10.45071411,2.700319529,15.64037514,8.756467819,-9.145066261,-5.64393425
0.659909546,3.075019836,-5.556294918,2.242097855,1.797932267,7.353935719,7.838565826,10.56199074,-1.759142518,-3.462613583,-3.749461651,5.024143696,4.785775661,0.512855709,-6.373979568,-5.258544922
3.41797471,3.346292496,-6.540147305,5.096649647,-0.30884096,13.40282249,12.3886404,5.632787704,13.92456341,9.051817894,4.371653557,12.66234303,8.37419796,1.607107043,-1.552506447,-2.246758461
-4.033776283,2.32363224,-4.506734848,-1.145060897,10.86457825,6.697902203,9.062683105,0.890886545,3.437134981,9.685383797,12.30914783,5.316164017,14.27209663,4.960733891,3.462539911,-7.231986046
4.471205235,0.123606086,11.54809284,5.270040035,-1.414613247,12.53117657,8.743525505,1.50827539,5.388174534,-2.2501688,8.203894615,16.28860855,5.273890018,9.329360962,-2.352443457,0.019622192
16.37802887,-2.942383766,0.111069575,-1.575368524,15.26564884,7.876594067,-3.000838995,1.526574969,4.666278362,8.522051811,-1.103656769,10.44023323,5.308336735,-9.644586563,-0.592026591,-11.17007637
10.05021191,-3.344877243,-1.755833864,-10.08823586,0.253132075,15.87143612,-1.281639934,-1.641920447,-1.558528543,-0.394641757,7.076513767,12.14200115,-5.244283676,9.298540115,-8.323282242,-10.82950783
21.4031601,-11.45091057,-9.258392334,-12.00016594,-6.359866142,19.71380997,3.022003889,-9.247601509,29.67379379,4.179769516,2.926252842,24.93365669,-18.65834999,1.397328734,-13.31060696,-21.60503578
45.21133423,-0.81030637,64.23457336,-24.54306602,-3.160743237,22.7097683,0.444780707,-17.86003113,-19.97302628,-17.84433746,-10.68761158,55.16611481,-15.54478455,26.06929779,-41.88676453,5.444171906
48.34386444,-20.84864426,39.27249908,-47.39208984,-11.16322136,36.79945374,-3.006261826,53.46086884,-9.827760696,-55.45192337,26.3839035,33.53746414,-12.78192616,1.948162317,-8.812743187,-21.25064087
42.87362671,-42.63633347,47.8629837,8.330298424,11.59908009,50.35079575,-28.89690208,-8.15609169,11.18882275,-40.79740524,-0.001317433,50.0005722,-52.9619751,-28.83229828,-43.83513641,-21.59115982
-0.430366993,-0.025601864,-4.919418335,-4.499190331,4.059957504,2.03069067,0.319876671,2.922135353,-4.193384647,-4.735061646,-0.762551785,2.878860474,-0.610221863,-0.5157938,-4.25912571,-4.302711964
35.1757164,-30.77794266,-38.57781982,-31.60538101,-8.816241264,7.89520359,46.26514816,15.66603756,51.24562454,27.95917511,13.90021133,-10.04840279,3.968222141,-34.10292053,30.72675514,-29.84947205
13.38613129,12.79009533,11.00823689,-14.65073872,-59.59293365,16.29924011,24.08953285,19.95131874,-22.40919495,-15.0746994,4.015395641,16.40224457,-1.16848743,26.09173965,-20.51628685,19.62511063
19.31309319,-15.98238373,-0.758450747,-8.963003159,21.53099632,8.804759979,-26.47141647,-15.59819698,18.73764229,-4.31485796,-1.787480474,22.04154587,-20.03787231,-10.9797678,8.865335464,-14.64895535
-5.402778149,-19.93642616,-5.990109921,-11.5318222,17.22752762,15.15681076,-14.93100548,10.22696686,9.309988022,-3.348633289,21.65805435,0.729290605,1.361796618,9.248802185,12.11700821,-23.36660576
7.759783745,-4.360957146,9.526615143,1.956481695,6.510935783,8.909484863,-6.688860893,-5.487029552,5.982381821,8.302042007,4.337370396,18.87012863,7.852551937,0.819198966,6.873504162,-1.39889276
14.61653614,-10.37041664,8.99823761,1.220794559,15.5376358,4.264112473,-11.5178442,-6.559279442,6.404182434,0.079434685,1.867065191,12.05540276,0.179219484,3.688588381,3.876191616,-1.891694427
0.981917799,6.727385521,3.845789909,-5.632495403,1.42085433,4.856431007,-3.868494034,-3.291695118,-17.90536499,-5.400246143,-0.411152542,2.424704313,5.307624817,1.058716536,-19.76189423,-5.536652088
-4.755007744,4.417328358,5.006968498,-0.53631705,-8.669631958,-3.305795908,3.367100716,0.25102067,-16.10732079,-4.067414284,-3.492087841,1.208516121,0.022068392,-3.812432051,-8.227369308,0.966059744
-10.33895588,6.710158825,13.94641113,10.88979626,-4.961957932,0.720653057,-6.925205708,2.7372787,-12.5824213,-0.192884132,-3.283798695,-4.600725651,-2.758746386,4.281060696,-13.1476469,15.9865303
0.892697513,3.810973644,22.24867821,15.32584095,0.193341076,-5.771070004,-0.666174769,-10.04631138,-7.010044575,-6.031920433,-17.88077545,3.527913809,-2.492671728,-9.463384628,-14.23479462,8.899786949
-6.102080822,3.766275406,17.84134674,6.276807785,-5.094481945,-3.404054642,-6.717143536,-10.57023907,-15.81240845,-2.266872168,-4.842806339,2.308329105,-6.013167381,0.825156987,-16.29273987,9.143473625
-5.081023693,-2.521882296,10.52247906,4.161738396,-13.86454391,-0.160748616,-1.797502041,5.043445587,-12.13429165,-10.74365997,0.968606889,-8.29940033,-4.272602558,1.125865936,-8.293048859,12.05966091
1.278585196,-2.048040867,13.03501797,-2.661431551,-15.2634182,-5.916701317,12.41150093,4.920239925,-4.038590908,-18.10255623,-0.274366021,-0.249583542,-7.078630447,4.883787155,5.700437069,7.14320755
-3.150397062,5.704257965,7.873988152,5.651612759,-10.21693325,-5.438506126,14.87743378,2.493304729,-0.353653669,-8.490251541,-3.693965197,-3.348380089,-4.714414597,15.7395649,3.642977476,16.70986938
0.323738009,3.490018368,13.23392105,-3.461949587,2.330099583,-4.8873806,6.912946701,3.210030079,-2.178518534,-9.188817978,-2.390798569,-2.238498926,13.47962189,6.397804737,14.89909649,6.90659523
-2.871227503,8.63179493,2.209584951,-9.379076958,-0.044405587,0.702435076,-3.970825434,-0.259188533,-5.211746216,1.555925369,-5.805116177,0.311825097,2.044333696,4.603055954,-4.403023243,-4.821850777
-0.123221561,5.568398476,-3.003734827,0.192135289,10.82627106,1.524275661,-6.675348282,2.13927865,-4.568648338,12.9351902,4.023810863,10.75598049,8.282168388,-1.994429827,1.25072062,-5.765371799
2.851390362,3.813800097,1.914384246,2.090688944,4.463957787,6.430806637,9.056830406,-3.298170567,2.51012516,7.785540581,-1.637196422,5.24549675,12.62608624,8.307695389,9.622769356,-3.088198423
9.523795128,-6.756611347,-6.915440559,-3.931870461,-2.258418798,6.6429739,0.863483191,-6.731997013,3.057669401,0.294917077,-6.984991074,10.90813446,-3.776581526,3.354388475,1.898265481,-4.553955555
-8.44910717,1.568666935,-2.621397018,7.733263493,1.658605576,2.572337151,2.07661438,-0.356571198,3.664658308,13.38040257,2.070523024,8.232096672,7.312512398,1.055737972,-4.879870415,4.595319271
3.902808666,4.13996172,-1.150309443,-10.26497078,4.457827091,3.843496323,5.709195614,-6.504719734,2.70153594,0.996766627,-1.006526828,9.713755608,-4.30973959,8.089876175,-2.496436596,-2.540623426
3.428089619,-1.007665396,-0.171245024,2.885235786,-0.681425393,7.436038494,7.444940567,-3.869023561,16.78809929,7.237023354,5.288493633,4.362281322,-0.585090935,7.654898167,-7.324771881,0.98424834
-3.487966776,-2.545174837,-7.417374611,-7.876085758,-3.559663057,-1.460412621,-1.307733774,-4.817423344,11.66139412,15.63987732,3.334406137,3.066350222,-6.291536331,7.526192188,-12.29207516,-1.167883039
-23.81388092,-12.35981941,2.974303484,7.761975288,-2.437412024,-4.087133884,-15.73577976,-8.713453293,16.13965988,8.732837677,24.31660843,-4.926242352,-24.22850609,25.99103546,-5.565402985,9.349179268
1.617891073,-7.67594099,78.82565308,33.00603485,-1.014467955,42.53778076,1.895910621,17.30579567,14.90952587,-18.32133484,28.26341438,37.87770081,10.53126335,20.81311798,-48.17004776,18.34671211
7.273633957,-32.30964279,12.11071777,12.57184219,-11.64276791,26.94762993,-5.654785156,42.9995079,33.83434677,-34.54032135,35.07950211,2.455281734,-7.653551579,10.92971706,13.16911221,-8.760048866
20.03611374,-39.7723465,54.38664627,25.93790054,29.04527283,52.65155029,-41.78575897,-27.62835503,31.52661133,-13.37918186,4.210644245,64.60466766,-54.54068756,-36.78310394,-46.23368454,-46.61450195
